/*This file is automatically generated from a Keras model*/

#ifdef HAVE_CONFIG_H
#include "config.h"
#endif

#include "rnn.h"
#include "rnn_data.h"

static const rnn_weight input_dense_weights[1008] = {
   -53, 48, -7, 1, 8, -14, -16, 2,
   -75, 54, 38, -1, 56, -10, 29, 4,
   26, -1, -3, 16, -1, 0, 68, 8,
   29, -45, 51, 18, -59, -52, 26, 0,
   -32, -14, 13, -14, 65, -23, 39, -2,
   -27, 18, 31, 37, -56, -31, -42, -24,
   64, 53, 54, 20, -49, -46, -46, 36,
   3, 21, -4, -32, -37, 24, 72, 2,
   -21, 32, 42, -5, -96, 40, -41, 13,
   -2, 53, 21, -8, -51, 22, 40, 19,
   20, 51, -22, 14, 25, 36, -86, -5,
   65, 24, -16, 44, 30, 4, 36, -10,
   -34, 39, -58, -43, -6, 85, -68, -33,
   67, -50, 27, 92, -48, 53, 40, 42,
   36, -4, -84, 56, -35, -2, 12, -51,
   -4, -79, 29, -51, -35, -1, -40, 68,
   -85, -43, -45, 8, -53, -24, 18, 24,
   -24, -17, 32, -4, -7, 32, -45, 43,
   -79, -23, 2, -118, 127, 114, 2, 61,
   55, -42, 10, 78, -25, 39, -43, -74,
   33, -68, -67, -69, 62, -17, -17, -66,
   -27, 37, 89, 51, -14, -74, 26, 40,
   33, -36, 23, 19, 15, 12, -101, 56,
   48, -60, -67, 31, 31, -39, 57, -39,
   -73, 48, 32, 9, 50, 32, -114, 21,
   -23, 13, -33, 9, 127, 96, 26, -52,
   -82, -77, -52, 15, 20, -45, 100, 48,
   -27, -32, 31, -78, 32, 17, 38, 101,
   54, 26, -48, 53, -126, -4, -77, -18,
   -52, -10, -65, -84, 32, -92, -20, -41,
   -63, 39, -18, -5, 53, 107, 4, 45,
   -15, -48, -44, -80, 39, -23, -71, -53,
   -39, -113, -53, -5, -67, -75, 55, -46,
   58, 97, -5, -71, -8, 83, 24, -14,
   42, -48, -24, 94, 1, 103, 53, -27,
   -98, -21, -12, -86, -22, -62, 85, -67,
   -14, -64, 16, 81, -24, -38, 9, 59,
   -7, 15, 18, 8, 10, 76, 74, 41,
   37, -11, -21, -70, 47, 25, -10, -51,
   -23, -6, 106, -102, 39, 68, 6, -60,
   60, 42, 102, 2, -18, 40, 21, -70,
   -9, -3, 21, -49, -74, 9, 94, -109,
   -65, -8, -30, 69, 20, -14, 48, -74,
   -17, -43, -128, -83, -78, -8, -56, -28,
   39, -56, -77, 92, 47, 2, 43, 31,
   75, -20, -99, 57, -15, -7, 15, -72,
   -32, 32, -37, -21, -127, 11, 10, 41,
   -43, 85, -50, -25, 73, 39, 41, -79,
   -46, -28, -3, 21, 5, -29, -36, -44,
   41, 65, -11, 26, 90, -30, 25, 45,
   0, -58, 69, -15, 54, 86, -28, 57,
   43, 0, 100, -44, 126, -38, -13, 112,
   65, -50, -11, -18, 19, -43, 18, -24,
   -67, -19, -38, -64, -94, 38, -6, 48,
   -128, -66, 61, -34, 80, 127, -43, 54,
   31, 20, -50, 25, 0, 16, 63, 13,
   6, 39, -77, 21, 44, -11, 52, -59,
   94, 98, -68, -24, 6, 36, 80, -43,
   -72, -100, 4, -81, 38, 65, 54, 49,
   5, 6, -45, 12, 30, 28, 8, 63,
   -41, 61, -48, -113, -30, -86, -42, 16,
   42, 75, -13, 98, -53, 95, -49, -51,
   -18, -45, -39, 86, -71, -44, 2, 30,
   -13, -81, 114, -83, 88, 99, -8, 65,
   50, 46, -74, 115, -33, 87, -52, -6,
   -24, -36, -49, 33, -27, -81, -36, -13,
   -59, -3, -102, 127, 66, -7, 125, -1,
   -18, 28, -83, 39, -29, 8, 0, 127,
   81, 100, 57, 37, 110, 116, 23, 59,
   20, -6, -54, 53, -30, -42, 79, -14,
   43, -33, -45, -85, -7, -68, 19, 90,
   2, 90, 8, 106, -15, 91, -16, 33,
   -70, -34, 65, 55, -73, -4, 34, 9,
   39, -1, 6, 70, 87, -64, 99, 48,
   -26, 127, 127, 37, -83, -62, -68, -15,
   -36, -43, -22, -29, 107, 85, -28, 15,
   59, 106, -67, 40, -24, 47, 24, 112,
   127, 15, -29, 124, 54, 48, 84, 114,
   79, -13, -36, -23, -93, -1, -73, -51,
   -28, -69, -45, -65, -1, -8, 68, -78,
   33, -1, -29, -22, 56, -19, -46, -119,
   -33, 64, 5, -53, -5, 76, -78, 105,
   123, 87, -55, 44, 38, 28, 9, 22,
   62, -42, 4, -17, -69, -69, 61, 19,
   36, -13, 68, -81, 10, -69, 57, -76,
   1, 8, 10, -20, -15, -34, -71, 89,
   -65, -62, -22, 56, -128, 127, 37, 7,
   65, -56, 74, -123, -96, 3, -4, -75,
   50, 92, -17, 16, 55, 38, 48, 43,
   -36, -1, 17, -45, -1, 4, -3, 5,
   -64, -50, -105, 32, 64, -11, 17, 32,
   -112, 22, -59, 88, -38, 52, -25, -10,
   -43, 72, 13, -48, 12, 13, -73, 54,
   -53, -54, -2, 7, -26, 47, -69, -14,
   35, 33, -39, -22, -32, -29, 74, -1,
   -60, 17, -8, -40, -34, -36, 64, -5,
   -78, -31, 70, -56, 32, -24, -30, -28,
   -45, 24, 12, 74, -16, 70, -71, -29,
   -56, 5, -41, 86, 19, -46, 54, -30,
   -15, -5, -28, 40, -42, 26, -15, 41,
   23, -91, -33, 49, -40, -2, -20, 44,
   -103, 16, 16, -27, 5, 21, -10, -58,
   -70, 13, -128, 114, 16, 6, 42, 13,
   -21, -29, -128, -29, -22, -128, -45, 127,
   82, 108, 22, 10, 118, 103, -60, 106,
   -81, -38, -127, 45, -94, 13, -1, -107,
   45, 56, -3, -57, -12, -128, -25, 107,
   -9, 122, 112, 105, 126, 16, 55, 13,
   43, -37, -47, 36, 27, 0, 38, -8,
   -61, 61, 47, -24, 21, 19, 18, 41,
   20, -23, -56, 80, 86, -73, -69, 13,
   -42, -58, -93, -95, -98, 61, -85, -63,
   31, 53, 17, 114, 30, 1, -91, 10,
   68, 48, -81, 37, 20, 13, -15, -89,
   51, -5, -1, -79, 55, 29, -84, 80,
   84, -67, 44, 72, -58, 2, -12, -66,
   30, -17, -51, -30, 38, -85, 31, 24,
   35, -4, 17, -43, 82, 71, -112, 48,
   -17, 79, 30, 69, 71, 120, 58, -28,
   -2, -24, -49, -11, 56, -81, -33, 48,
   68, 0, 78, -98, 27, -8, 0, -22,
   -57, 12, -42, 69, -36, 70, -8, 6,
   -12, -28, -48, -39, 26, 17, -25, -53,
   -99, -45, 32, 12, 5, -12, -34, 19,
   8, -20, -95, -22, -70, 23, 2, -19,
   54, -18, 18, -34, -29, 96, 8, 66
};

static const rnn_weight input_dense_bias[24] = {
   29, 1, -2, 3, -14, 5, 10, 4,
   17, -5, 29, 6, -6, 3, -26, -6,
   -14, 15, 9, 8, -41, -17, -4, -40
};

static const DenseLayer input_dense = {
   input_dense_bias,
   input_dense_weights,
   42, 24, ACTIVATION_TANH
};

static const rnn_weight vad_gru_weights[1728] = {
   -38, 42, 19, 18, -12, 22, 32, -70,
   -21, -30, -52, -31, 9, -61, -1, -63,
   70, -39, 16, 26, -63, -83, 13, -51,
   48, 50, -26, 20, 67, -9, 8, -10,
   41, 10, -24, -23, -56, -22, 3, -12,
   -62, -46, 58, -26, -47, 81, -28, -34,
   34, 45, 31, 70, -54, -54, -12, -45,
   33, -28, 52, 19, 10, 13, -33, -41,
   -2, 3, -20, 50, 16, 51, -28, -57,
   29, -8, -19, -13, 15, -28, -69, -44,
   74, 49, 14, 24, 49, -7, -45, 28,
   -28, -29, -14, -68, 8, -42, -8, -32,
   38, -64, -26, -53, 22, -23, 5, -27,
   -7, 22, -25, 1, -5, 36, 55, -19,
   -85, 39, 54, 6, -73, -11, -37, -4,
   68, 25, -20, 34, -11, 64, -43, -27,
   -25, -30, -22, -41, 0, 48, -60, -48,
   50, 31, -18, 16, 46, 53, 17, 36,
   -42, -35, -105, 3, -1, 30, 67, 82,
   -21, 94, -93, -26, 30, 70, -13, 51,
   -99, 7, 22, -14, -73, -77, 3, -24,
   54, -35, 20, -9, 35, -38, 30, 64,
   -28, -31, 9, -26, 53, 10, 11, -28,
   68, 26, -19, -7, 9, 25, -49, 63,
   50, -22, -42, 56, 55, 27, 11, -12,
   46, -16, -27, -22, 36, -35, 19, 54,
   33, 42, 36, -9, 69, -40, 50, -36,
   -79, 21, -54, -49, -40, -9, -29, -43,
   -49, -29, -28, -1, -6, -77, -11, -13,
   -69, 27, 16, -2, -17, -36, 19, 83,
   -21, -15, 29, -72, 11, 41, -37, -57,
   -88, 11, -90, -80, 13, -63, 17, -9,
   29, -21, 0, -89, -75, -2, 17, -81,
   -67, 33, 20, -58, 47, -23, 0, 27,
   -73, 37, 14, 48, -18, -88, -49, 39,
   36, 15, -11, -66, -82, 37, -45, 25,
   15, 90, 127, 123, 74, 44, -19, 75,
   28, -16, 94, 41, 78, 90, 48, -72,
   98, 126, 127, 42, 127, 127, 46, 127,
   23, 60, 21, 77, 4, 10, -42, -21,
   41, 16, -31, -73, 19, 11, 38, -37,
   -39, -21, -1, -35, -17, -23, -16, 13,
   43, -53, -11, 29, -22, 23, 17, -42,
   -34, 58, 10, -43, 58, 44, 51, 66,
   15, 71, -15, -57, 39, 40, -19, -21,
   20, -17, 5, -19, -75, -55, -16, 28,
   20, 34, 12, 19, 29, 59, 30, 7,
   62, -7, 23, -65, 55, 51, 0, 35,
   11, -33, 37, -26, 36, -19, 14, -53,
   7, 27, -37, 2, 19, 47, 42, 40,
   -71, -63, -24, 1, 54, -27, 41, -19,
   21, -9, 15, -28, 33, -60, 41, -42,
   10, 20, 4, -78, -17, 42, 43, -10,
   11, 4, -60, -65, -16, -19, -41, 50,
   -34, -56, 66, 4, -14, -4, -11, 10,
   10, 41, 1, 17, -95, -76, 24, 6,
   4, 21, -54, -70, 21, 1, -88, 26,
   22, 46, 22, 62, 90, 12, 83, 1,
   6, -10, 40, -10, 6, 82, -25, 20,
   -1, -29, 0, 42, 56, 23, -40, -16,
   -40, 23, 43, 26, 23, -33, 38, -8,
   -12, -41, -61, -9, 1, -10, -18, 58,
   17, -19, 49, -8, 25, 48, -13, -15,
   8, -6, -44, 42, 55, 61, 127, 54,
   -56, 100, 89, 28, 69, 76, -85, 25,
   -81, 5, 41, -40, 95, 90, -11, 32,
   -77, -58, -69, 57, 2, 58, 24, 65,
   -4, 109, 20, -45, 3, 15, -47, 39,
   -22, -15, 58, 23, 10, 22, 25, -106,
   48, -28, -33, -10, -40, 38, 37, -8,
   -58, 44, -28, -42, -7, 66, 9, 36,
   39, 58, -60, -64, 16, -33, 42, -38,
   70, 31, 70, 61, 59, 38, 23, 71,
   -35, 0, 40, -18, 39, 17, 45, 20,
   5, -18, 62, 53, 81, 40, 38, 80,
   -37, 12, 56, 48, -6, -33, -38, -54,
   47, -65, -6, 66, 65, 8, 10, 51,
   -72, -6, 43, 28, -34, -9, 67, 32,
   51, -15, 55, 18, 35, 10, -29, -30,
   -42, -17, 31, -27, -24, -27, 41, -43,
   -53, -13, 16, -3, -45, -44, 28, 10,
   69, 40, -45, 31, 9, 45, -19, -4,
   13, -8, -17, 83, 48, 46, -74, -46,
   -54, 32, -44, 5, 13, -19, 50, 60,
   33, 0, -11, -23, -30, 33, 42, -31,
   60, 24, 29, -22, -30, 10, -5, 64,
   50, -12, -40, -38, -30, 33, -36, -90,
   2, 46, 11, 42, -17, 8, -16, -47,
   -28, -30, -33, -39, -2, -18, 37, 33,
   -10, -18, 1, 44, -63, 5, -47, -47,
   20, 28, 4, 10, 27, -13, 3, 52,
   -25, 5, -52, 37, -58, -69, -1, -15,
   -33, -44, 6, 56, -47, 30, 7, -80,
   -16, 75, 29, -32, 36, -42, -15, 25,
   -23, 25, -26, 53, -40, 2, 60, 13,
   -37, 0, 26, 57, -39, 25, -24, 47,
   21, -17, 5, 6, -45, -36, -49, 45,
   0, 29, 29, 37, 28, -60, 62, -34,
   -55, -57, 12, 62, 38, -36, 27, -76,
   30, -27, 52, 36, 9, -33, 118, 28,
   -5, 21, 32, 74, -8, 18, 69, 17,
   -4, 26, 69, 34, 81, 31, -13, 14,
   53, 102, 37, 28, 44, -45, 12, -21,
   50, 49, 42, 10, 9, -11, 42, -33,
   22, -13, 2, 28, -3, 59, 82, -47,
   58, -57, -31, 77, -35, -4, 12, -2,
   4, 10, 63, -15, 56, 84, 37, 4,
   -24, 32, 28, 31, 8, -11, 76, 24,
   25, -46, -12, -21, 29, -74, 42, 33,
   21, 8, -26, -32, 60, 43, 78, -19,
   77, 18, 4, -45, 68, -29, -17, 32,
   59, 52, -36, 52, -7, 12, 22, 33,
   99, -19, -20, 14, 58, -39, 35, -40,
   4, 17, -22, 23, 46, 65, 49, 1,
   41, -37, -3, 38, 15, -20, -25, 2,
   69, -37, -20, 14, 9, 54, -31, -31,
   -58, -4, -8, -20, 13, -41, -44, 32,
   -38, -52, -47, -5, 41, -22, 93, -31,
   -19, -63, -18, 48, -35, 76, 64, -85,
   -38, 64, 10, -1, -29, 28, 30, 11,
   10, -45, 41, 70, -14, 55, 18, -40,
   -40, -61, 45, -13, -17, 95, -30, -40,
   -66, 12, -22, -17, 3, 69, 18, 64,
   14, -58, -52, 0, 58, 44, 15, -7,
   7, 80, 54, -2, -43, 34, 66, 9,
   -20, -7, -64, 26, 63, -72, 1, 34,
   66, 48, -13, 74, -24, 23, 24, 17,
   29, -40, 30, -32, -13, 22, 87, -36,
   41, -29, 37, 99, 52, 95, 65, 72,
   -22, -37, 11, 45, -56, 43, -28, -48,
   -27, -20, -1, -40, 50, -47, -30, -61,
   -37, -32, -12, -13, -18, -4, 31, -9,
   7, 29, -1, 61, 6, -53, 11, 37,
   4, 31, -11, 37, -51, 15, -31, -55,
   50, -52, 58, 11, 31, -16, 19, -30,
   -49, -26, 15, 16, -40, 20, -113, 2,
   74, -52, -15, -79, -27, -128, 14, 64,
   -13, -57, -84, 69, 13, -30, -39, 53,
   9, 106, 75, -31, 60, 60, 45, 18,
   30, 17, 3, 24, 22, -13, -27, 30,
   96, 47, 34, 55, -2, 97, -40, -16,
   -47, 100, 89, -52, -33, 14, 22, 20,
   -85, 26, -80, 52, 26, 38, -27, 69,
   40, -87, -1, -80, -36, 63, -79, 75,
   12, 35, 33, 88, 87, -15, 58, 38,
   57, 57, 74, 52, 94, 97, -39, -7,
   84, 81, 56, -7, 58, 21, 83, 51,
   -26, 26, -53, -15, 31, 7, -23, 62,
   -35, -36, 31, -29, -42, 14, 12, 30,
   -12, -29, -47, 63, 32, 8, 43, -7,
   -44, -3, 45, -2, 14, -43, 21, 12,
   13, -74, 6, -27, -18, 14, 28, 55,
   -13, -24, -16, 8, -71, -13, -45, -10,
   1, -43, -85, 29, -83, -9, -86, -20,
   13, -27, -20, -84, -16, -69, -46, 43,
   20, -77, -33, 54, -84, -88, -73, -51,
   -42, -17, -27, 1, 23, -30, 42, -57,
   -62, -79, -42, 55, 14, -49, 46, 7,
   -79, -14, 26, 41, 20, 33, 49, -20,
   -42, 50, 72, -35, -39, 38, -2, -29,
   -90, -27, -88, 50, -51, 20, 7, 62,
   53, -35, 45, -65, 22, 97, -99, 118,
   53, -29, -30, -5, -24, 72, -39, 19,
   90, -25, 39, -14, 31, -63, -38, 67,
   73, -32, -39, -17, 49, 41, -1, 53,
   -26, 31, 47, 36, -11, 0, -6, -85,
   32, -58, -34, -50, 16, -29, 1, -44,
   -53, -12, -6, -84, 24, 18, 90, 21,
   29, -25, -48, -47, 21, -65, -18, -6,
   0, -71, -30, -23, 27, -6, -43, -25,
   5, -86, 62, 11, -17, 27, -70, -1,
   30, -6, -14, -1, -89, 31, 15, 9,
   38, -33, -35, -49, -31, -99, 81, -98,
   -14, 14, 32, 2, 31, 36, 38, -116,
   56, 38, 27, 14, 96, 75, -11, 116,
   -58, 29, 15, 39, 83, -9, 20, 17,
   -21, 52, 54, 10, 32, 41, -27, 61,
   -53, 0, -21, -62, 2, 54, 60, 13,
   -50, 29, -25, 13, -77, -7, 26, -46,
   89, 25, 7, 12, -57, 64, 4, 18,
   -56, -7, 105, 32, 40, 62, 17, -25,
   -43, 63, -4, 21, -56, 44, 3, -6,
   -69, 92, 73, 26, -34, 75, 36, 24,
   -33, 41, -96, -7, 90, 66, -20, 9,
   -10, 48, 34, 65, -17, -62, -49, 65,
   14, 69, -21, 126, -34, 10, -47, -45,
   -46, 17, 71, -54, 25, 12, -23, -56,
   -12, 59, -24, 48, 24, 26, -29, 0,
   93, -13, 3, -39, -25, 21, -24, 40,
   -30, 62, 47, 0, -25, 21, -44, -6,
   45, -111, -25, -32, 3, 50, -12, -66,
   -58, 30, -17, -41, 38, -50, 7, 22,
   -51, -47, -67, -8, -37, 49, 39, -4,
   -73, -10, -64, -14, -71, -43, -17, -10,
   -14, -79, -20, -75, -30, -20, -13, 16,
   -40, 50, 88, 36, 13, -21, 7, 6,
   -3, 26, -70, 41, -58, 22, -35, 11,
   62, 16, 37, 16, -27, -19, -34, -9,
   -46, -55, -2, -19, 66, -29, 22, -32,
   -29, -67, 17, 37, 0, -18, -15, -12,
   23, -50, 21, -35, -9, -23, -6, -43,
   8, -58, -54, -37, -25, 27, 43, 10,
   44, -12, -40, 17, 50, 42, 29, 5,
   8, 44, 24, -62, -54, 43, 36, 31,
   -8, 28, -24, -55, -31, 14, -38, 32,
   30, 3, 40, -33, -14, 51, -23, 5,
   8, 30, 61, -32, 50, 57, -15, 11,
   54, 71, 95, 62, 103, 74, -19, 41,
   61, 57, 127, 65, 98, 120, -2, 28,
   22, 127, 117, 106, 127, 98, 47, 71,
   18, 22, 14, 55, 39, -57, -76, 34,
   -29, -66, 36, 5, -12, -91, -13, -22,
   24, -32, -63, 45, -55, -41, -2, -5,
   -45, -43, -23, -23, 36, -82, 68, 69,
   20, -56, 38, 16, -34, 50, -67, -22,
   -61, -59, 28, 41, 9, -27, 50, 57
};

static const rnn_weight vad_gru_recurrent_weights[1728] = {
   -29, -21, -42, 10, -6, 35, 9, -9,
   5, 13, -16, -4, -29, -106, 3, -78,
   8, 2, 9, -44, -37, 1, -53, 37,
   20, 19, 54, -7, 24, -13, -9, -9,
   5, -4, 43, 50, 23, -55, -17, -8,
   -1, 48, 5, -41, -39, -43, -13, 32,
   37, -30, -30, 64, 32, -13, -53, -51,
   -7, 46, 105, -3, 104, 55, 32, 47,
   -20, 67, -69, -17, 38, -5, 62, 25,
   11, 19, -29, 48, 11, 37, -13, 18,
   41, 26, 36, 37, -8, -37, -4, 71,
   11, -3, -62, -1, -42, -3, 9, -24,
   9, -16, -17, 16, -33, 33, -5, 5,
   10, 52, -10, -44, -10, -10, 16, -56,
   -19, 40, 26, -35, -17, -40, 18, 30,
   -22, 51, 85, -31, -85, -44, 41, 82,
   -75, -14, -116, 34, -29, -5, 45, -78,
   43, -60, 18, -13, -21, 38, -49, 3,
   6, 51, 2, 51, -3, -23, -119, 25,
   127, -24, 48, 60, 42, 48, 98, 71,
   35, 62, 62, -12, 67, 69, 85, -10,
   44, 3, 24, 32, -37, 4, -45, -24,
   46, 55, 69, -37, 19, -13, 36, -12,
   24, 22, 9, 35, 26, -1, 3, -31,
   -9, 20, -11, -62, -43, -48, 39, 1,
   -97, -15, -54, 83, -15, -46, -62, -32,
   -3, -18, 32, -33, -4, 37, 5, 34,
   2, -59, 22, -29, 0, 5, 4, -37,
   1, -3, 14, -69, -42, -57, -57, -14,
   16, -96, -49, -22, 17, -29, -60, 49,
   -39, 25, 8, -27, 5, 73, 54, -47,
   20, 22, 10, -88, 3, -11, -29, 5,
   36, 14, 43, -2, 7, 36, -69, -29,
   40, -35, -18, 28, 47, 52, -85, -97,
   53, -20, 28, -62, 62, 37, 76, 30,
   -16, 18, -43, 18, 14, -35, 76, -22,
   -30, -48, -35, -22, 34, -23, -29, -6,
   -48, -6, 6, -68, 52, -13, -21, -29,
   -114, 1, -3, -71, -100, -51, -69, -46,
   -27, -60, -25, 33, 1, 4, -36, -3,
   -23, -61, -17, 17, -16, -6, -3, -19,
   -43, -38, -42, -33, -30, -28, -50, -7,
   -17, 27, 8, 8, 49, 21, -12, -19,
   23, -22, -38, 40, -29, 29, 19, 50,
   -53, -30, 18, -61, -12, 76, 46, -13,
   -128, -112, -13, -70, -52, 86, 29, -33,
   -53, 30, -98, -128, -104, -66, -65, 34,
   -41, -112, -128, -36, -69, -128, -128, -95,
   41, 43, 26, -36, 18, 27, 75, -12,
   13, -26, 52, 99, 3, 0, 30, -3,
   10, -2, -34, 73, 52, 33, -19, -7,
   -28, -6, 50, -66, -22, 0, 13, 1,
   -12, -21, 24, 35, -46, 10, 34, 11,
   37, -7, -37, 44, 6, 2, 43, -3,
   1, 54, 20, 18, -25, -26, 96, -45,
   70, 8, -9, 41, 24, 13, 4, 25,
   -34, 6, 36, 16, -49, -18, -6, -10,
   -8, 22, -22, 19, 59, -28, -25, 18,
   -41, 22, 0, 26, 1, 32, -9, 47,
   14, 38, 22, -37, 17, 30, -24, -23,
   -57, 35, -20, -28, -31, -97, 7, -4,
   52, 4, -43, 17, -42, 16, -47, 19,
   92, -7, 49, 11, -76, 89, -31, 78,
   63, 72, 52, 47, 65, -59, -13, 63,
   53, -44, 58, 47, -13, 73, 94, -32,
   52, 68, 65, 51, -38, 40, 39, -2,
   14, 26, -20, -32, -4, 17, 6, -42,
   9, -38, -15, -36, -28, -67, -45, -60,
   4, -5, -15, -25, -47, 20, 24, 5,
   -27, -22, 61, 23, -36, 16, -21, 37,
   28, -18, 32, 12, -16, -2, -2, -79,
   -42, 46, -12, 46, 3, -27, 12, 7,
   -49, -27, 11, -62, -53, -32, 20, -53,
   -7, -79, -53, -79, 30, -112, 67, -93,
   -11, -8, -39, -51, 19, -49, -87, 7,
   9, 22, -12, 24, -18, 50, -8, -40,
   -60, -24, -20, 9, 34, 26, -23, 6,
   -38, 39, -14, -20, -26, -35, -35, 14,
   49, 5, -30, 40, 47, -12, -22, -58,
   -22, -20, 26, -34, 1, -3, 7, -27,
   8, 46, -10, 57, 3, -67, 27, -98,
   -99, -15, -60, -59, -65, 82, -30, -41,
   -48, 52, -81, -70, -11, -42, -26, 69,
   2, -79, -36, -77, -81, -51, -58, 15,
   -8, -37, -26, -42, -7, -4, 75, 39,
   -4, 38, -29, 1, -43, 24, 6, -13,
   7, 60, 8, 86, -17, 69, -9, -16,
   -20, 37, 19, 8, 45, 23, -27, 47,
   -25, 4, -61, 34, -15, -40, -12, 37,
   16, 35, 38, -69, -89, 54, 4, 50,
   -39, -38, 3, -52, 42, -40, 108, -54,
   -21, -19, 2, -25, 49, 21, 48, -10,
   51, -11, 43, -105, -20, -58, -5, -4,
   15, 36, -4, -19, 29, -22, 26, 62,
   -63, -11, 15, 27, 8, 8, -3, 10,
   30, -23, -16, -39, 36, -24, -69, -30,
   52, -18, -57, 48, 57, 30, -32, -41,
   26, 56, 69, -33, 46, 41, 39, -25,
   -45, -24, -53, 33, 24, -7, -8, -27,
   79, 34, -18, 95, -21, -50, -51, -32,
   53, -49, 73, 9, 14, 11, 51, 63,
   65, 36, -2, 17, 55, 7, 26, 43,
   44, 0, 23, 6, -34, -70, 31, -12,
   30, -31, 13, -36, 22, 15, -16, 22,
   -11, 63, -24, 61, -1, -54, 13, 2,
   14, 27, 58, -3, -85, -21, 41, 36,
   22, -14, -22, 7, -4, -12, -43, 6,
   13, -26, 62, 9, -28, 87, -88, -29,
   -13, -31, -40, -9, -2, -7, 19, 72,
   23, 6, -49, -90, 7, -63, 2, -9,
   -55, -36, -69, -46, -42, -33, -26, -19,
   -18, -8, 2, -28, -61, -32, 79, 20,
   -9, -26, 53, 14, 22, 20, 8, -3,
   53, -14, -13, 46, 52, 31, -3, 33,
   34, 2, -37, 45, -28, 23, -23, -56,
   3, 6, 19, -65, 97, 74, 4, 52,
   65, 45, -33, -64, 11, -82, 0, -8,
   -18, -13, -35, -44, -55, 74, 43, -29,
   46, -1, -67, -16, -45, -47, 22, -31,
   -32, -39, -56, 2, 17, -44, -27, -33,
   -13, -13, 5, -12, 30, -15, -10, -18,
   18, 19, -59, -55, -1, 23, 40, 5,
   -44, -77, 23, 25, 47, -12, -29, -1,
   13, 17, 45, 72, 18, 61, 11, -6,
   6, -9, 12, 46, 44, 45, 26, -11,
   -42, -27, 14, -29, -50, 4, 33, 54,
   -80, -50, -11, -127, 13, 31, 58, -17,
   -32, -15, -125, -76, -65, -81, -50, 22,
   -75, -57, -83, -24, -89, -54, -67, 30,
   7, 64, 7, 99, 51, -1, 71, 5,
   24, -37, 35, 67, -32, 57, 29, 37,
   30, 40, 48, 78, 52, -9, 0, -23,
   22, -17, -12, 23, 25, 27, -71, -75,
   22, 60, -35, -33, 41, -5, 21, 45,
   -19, 9, -60, 6, 70, -53, 47, -25,
   -66, -70, -66, -97, -17, -11, 17, 53,
   -49, 41, -99, -56, -45, 0, -70, 47,
   -28, -42, -127, -89, -24, -40, -101, -17,
   19, 10, 44, 76, 93, 43, 106, 51,
   26, 16, 12, 115, 43, 19, 58, 18,
   45, 114, 127, 40, 127, 71, 23, 66,
   -79, 14, 41, -15, -23, 34, -14, -3,
   -40, 37, 0, 61, -78, -8, -31, 62,
   54, -55, 61, -44, -81, 86, -10, 17,
   79, 50, -11, -9, -9, 2, -42, 69,
   39, 49, -12, 58, -27, 25, -41, 31,
   24, 29, 63, 13, 97, 39, 27, -61,
   -3, -15, 13, 34, 18, -4, 22, 19,
   23, -56, 45, 37, 1, -9, -17, -20,
   62, 52, 25, -11, -10, 40, 16, 20,
   -10, 81, 77, -80, -3, -51, 87, 31,
   -36, -9, -57, 73, -36, -23, -5, -63,
   10, -65, 26, 10, -95, 31, -100, 54,
   -93, -69, -36, -67, -92, -31, 30, -81,
   -99, -10, -34, -86, -128, -57, -26, -18,
   -103, -23, -88, -30, -67, -88, -61, -63,
   -64, -25, -12, -51, 4, 6, 17, -12,
   7, 2, -1, 24, -37, -12, 23, -22,
   -12, 19, 40, 11, -2, 20, -59, -27,
   15, 12, -12, 6, 39, 5, -35, -73,
   -31, 50, -48, -18, 51, -27, 48, 21,
   -2, 74, 4, -14, -43, 46, -7, -27,
   -4, 28, 28, 22, 55, 11, -28, -32,
   -3, 67, 48, 24, 28, 50, 33, 16,
   2, 4, 44, 2, 47, 36, 11, 13,
   15, -35, -6, -13, -20, -39, 16, -39,
   59, -27, -63, 20, -37, -32, -41, -20,
   -19, -24, -11, -9, 19, -68, -5, 15,
   -14, 26, 50, -38, -21, -17, -17, -25,
   -45, -66, -7, 19, -18, 26, -57, -15,
   -8, -26, -17, -7, -25, -39, -68, 19,
   -59, -7, 54, 27, -49, -38, 23, 4,
   16, -33, -50, 12, 17, -9, 3, -62,
   46, -28, -38, -27, -28, -40, 48, -22,
   65, -3, -22, -12, -44, -66, -67, 10,
   -48, -47, -8, -60, -17, 9, 9, -19,
   -11, -3, -13, -6, -12, -73, -30, -36,
   2, -46, 14, 35, 64, 17, -58, -61,
   69, -20, 48, -78, 75, -14, 29, -17,
   -58, 71, -53, 55, 35, -36, 70, -83,
   -28, -56, -4, -70, -20, -4, 55, -53,
   -7, -17, -17, -86, -22, -91, -28, -44,
   -16, -13, -57, -56, -17, -79, -44, -18,
   -55, 52, 35, -1, -32, -22, -74, 68,
   9, 0, -5, 1, -9, 50, -44, -57,
   6, 10, 20, -69, 43, 13, 34, 32,
   104, -59, -36, 6, 17, 78, -81, -32,
   41, 31, 82, -75, 26, 54, 2, 48,
   -105, 116, -55, 64, 62, -43, 62, -51,
   7, 18, -17, 29, -25, -28, -72, 62,
   17, 20, -10, 59, 24, 49, -66, 18,
   -17, 22, 49, 18, -20, 38, -9, -4,
   -14, 65, 38, -24, 26, -9, 39, -11,
   -7, -9, -2, -51, -93, 8, 8, -14,
   27, 16, 3, 30, 36, -8, 18, 43,
   -32, 61, 22, -22, -89, -15, 105, 14,
   -114, -58, -6, 52, -51, -50, -31, -25,
   38, -90, 97, -19, -18, 94, -29, 21,
   -32, -30, -21, -41, -41, 42, 39, 15,
   0, -15, -26, -59, -12, -40, -6, -49,
   -31, 85, -58, -16, 26, -67, -40, 19,
   -9, 0, -29, 9, 6, -20, -22, 6,
   -40, 17, 11, 25, -79, -32, 47, 82,
   20, -10, 33, -23, -51, 48, -48, -38,
   6, -48, -28, 15, -7, -9, -74, 5,
   14, -15, 39, -24, 24, 78, 6, 44,
   -63, -13, -54, 14, 26, -48, 6, -77,
   17, 4, -28, -24, 29, -15, -32, -31,
   36, 27, 23, -21, -10, 16, -47, -6,
   1, -9, -37, -24, 40, 48, 19, -10,
   8, 18, 58, 3, 21, 21, -33, 44,
   -4, -53, -21, -19, 28, -4, -9, 11,
   14, 12, -12, 42, 18, 21, -38, -1,
   -95, 40, 41, -14, -52, -99, 115, 43,
   7, -12, -115, 72, -43, -87, -41, 41,
   24, -2, 55, -57, -22, 6, -28, 8
};

static const rnn_weight vad_gru_bias[144] = {
   -94, -63, -41, -82, -24, 2, 48, -30,
   -87, 37, -76, -53, -72, -40, -48, 12,
   -66, -55, -83, -52, -49, -74, -68, -45,
   62, 60, 23, 46, 64, 23, 73, 40,
   21, -4, 47, 56, 46, 55, 19, 19,
   55, 48, 73, 50, 69, 68, 19, 43,
   1, -4, -15, 4, 8, 14, -6, -12,
   -9, 6, 8, -5, 4, 6, 5, 22,
   7, 1, -5, -15, 3, -7, 5, -3,
   -94, -63, -41, -82, -24, 2, 48, -30,
   -87, 37, -76, -53, -72, -40, -48, 12,
   -66, -55, -83, -52, -49, -74, -68, -45,
   62, 60, 23, 46, 64, 23, 73, 40,
   21, -4, 47, 56, 46, 55, 19, 19,
   55, 48, 73, 50, 69, 68, 19, 43,
   4, -4, -16, 4, 6, 19, -9, -16,
   -4, 9, 11, -8, 5, 13, 7, 28,
   11, -2, -2, -26, 3, -5, -4, -10
};

static const GRULayer vad_gru = {
   vad_gru_bias,
   vad_gru_weights,
   vad_gru_recurrent_weights,
   24, 24.0, ACTIVATION_TANH
};

static const rnn_weight noise_gru_weights[12960] = {
   -13, -9, -39, -21, 10, -21, 23, 31,
   24, 20, 11, -19, -32, -41, -31, 31,
   -12, 3, -19, -20, -48, 36, 4, -15,
   -9, -29, 3, 22, 33, 5, -5, 38,
   50, -33, -43, 16, 1, 36, 30, 4,
   -20, 33, 50, -17, -36, -26, -43, 46,
   36, 31, -31, 33, -28, -20, 43, -6,
   41, -4, -6, -5, -4, -26, 34, -29,
   24, 15, 19, 34, 16, -15, 26, -26,
   29, 40, 14, -29, 3, 13, -26, 4,
   -36, -18, -22, 17, 49, -21, 22, -2,
   33, 24, 13, 25, -37, 24, -12, 5,
   16, -36, 7, -38, 9, 14, 9, 22,
   19, 12, 5, 41, 12, -25, -21, 28,
   8, -37, 23, 33, -30, -51, 38, 45,
   -12, 7, 34, 14, -8, 9, 33, -37,
   23, -5, 26, -2, 26, 7, 0, 6,
   30, 35, 57, 10, 19, -30, 13, 40,
   -36, -15, 33, -26, 48, -37, -21, -19,
   -38, -17, 17, 24, -26, -28, 36, -5,
   -12, -5, 10, 26, 45, -50, 12, -12,
   -19, -12, -34, 35, -11, 0, -12, 21,
   -17, -6, -9, -19, 30, -12, -8, 4,
   -42, -30, 30, 4, 11, -12, 33, -13,
   -29, 45, 23, -14, 3, -18, -31, 30,
   38, -21, -15, 14, 34, 5, -27, -40,
   25, 26, -6, 0, 27, 52, 4, -26,
   -3, 8, -45, 4, -26, 22, -35, 13,
   8, -15, -22, 19, 17, -49, -40, 25,
   -2, 24, -3, 4, -7, -5, -20, -29,
   -25, 25, -30, -6, -21, 26, 30, -9,
   3, 2, -30, 11, 43, 40, 16, -11,
   41, -25, -1, 1, 27, 34, 21, 1,
   12, 6, 12, -24, -33, -23, -27, 17,
   22, 3, -28, -3, -46, -35, 7, -11,
   29, -28, -25, -29, -17, 5, -4, -24,
   29, 68, -7, -12, -29, -14, 37, 21,
   -3, 2, -19, -40, -42, 36, 29, -24,
   -11, 45, 7, 38, -56, 20, 47, 40,
   41, 23, -30, 19, 6, -18, -9, 16,
   -19, 59, 52, -46, -10, 67, -19, 79,
   -15, -15, -7, 9, -39, 38, -4, -13,
   35, -30, -33, 18, -22, -18, -16, 29,
   21, 40, 29, -19, 34, 47, -38, -17,
   -9, 12, -8, 11, 19, -19, 15, -14,
   16, -10, -5, -18, 53, 50, 8, -28,
   10, -19, -20, 33, 12, -33, 0, -40,
   32, 17, 27, -8, -24, 0, -1, 33,
   25, -4, -35, -31, -34, 42, -17, 37,
   -3, 5, 49, -25, 20, 11, -44, -21,
   27, 17, 10, 12, -38, 24, -1, 30,
   -9, -2, -11, -3, 41, -27, 30, -15,
   31, 25, -38, -21, -32, 52, -35, 42,
   29, -19, 47, -12, 17, -19, -36, -21,
   17, -57, 36, -33, -5, -19, -46, 8,
   -35, -4, -26, 14, -20, -23, 12, -50,
   32, -44, -19, -14, -18, 25, -7, 54,
   -18, -30, -6, 17, 6, -12, -13, 15,
   -22, -51, 49, -18, -22, -12, -10, -14,
   -7, 7, -27, -18, -29, 20, 19, 6,
   -54, 27, 22, -37, -34, 3, 55, -26,
   39, -9, -22, 2, 21, 44, -35, 20,
   -18, 21, 26, -12, -33, 50, 11, 4,
   16, 23, 18, -6, 41, 34, 8, -13,
   -23, -29, -15, 14, -34, 5, -7, -24,
   -18, 0, 9, 4, -12, 30, -38, -14,
   28, -7, 23, -42, -33, 15, 6, 19,
   -5, 10, -34, -17, 28, 54, 2, -32,
   31, -17, 26, 30, 12, 50, 29, -10,
   41, -26, 18, -21, 47, 33, -28, -17,
   -2, 5, -8, 6, -16, 19, -25, 4,
   -43, -49, -35, 8, 17, 20, -42, 24,
   1, -3, 7, 7, -16, 3, 8, -47,
   3, -21, -4, 36, 31, 15, 32, 39,
   -9, -42, -47, 1, 29, -5, 12, -3,
   -34, 45, 18, -13, -12, -51, -25, -24,
   2, -40, 7, -29, 25, -7, -44, -26,
   30, -28, -13, -6, 34, -24, 1, 19,
   -2, 28, 45, -12, 11, -24, -23, -16,
   25, 43, -30, -37, -7, -26, 47, 55,
   38, 26, 10, 18, 34, -24, 13, -41,
   -23, -32, 13, 17, -1, -9, -2, 28,
   -30, 1, -5, 21, 11, -17, 11, 34,
   11, -37, 9, 15, 4, 8, 22, 35,
   -23, 23, -11, 42, 44, 51, -13, 8,
   11, -20, 38, -22, 56, 19, -22, 46,
   14, -6, 49, 38, -9, 25, 10, -16,
   17, -33, -18, -4, -48, 7, -39, 46,
   39, -35, 42, 20, -15, 42, -21, 10,
   40, 5, 5, 31, 8, -30, -8, 29,
   -41, -3, 3, 18, 18, 31, 64, 8,
   27, -36, -17, -13, 17, 0, 21, 27,
   52, -30, -2, -21, 7, -6, 5, -34,
   -41, -2, 6, 36, 13, 39, 12, 18,
   -12, 50, 15, -16, -36, -42, 2, -8,
   39, -51, 31, -32, -25, 15, 23, 5,
   17, 18, 16, 39, 28, 25, -27, -34,
   -45, -23, 12, 8, -36, -2, -25, 34,
   0, -50, -33, -2, -21, -8, -18, 25,
   -23, 41, 22, 13, -38, 1, 17, -51,
   -21, -2, -14, 6, -14, 49, 15, -22,
   -24, -24, 7, -2, -14, -4, 0, 0,
   15, 25, 29, 13, 34, -35, 39, -36,
   43, -25, 17, -24, -20, 31, -1, -40,
   10, 10, 16, -19, 27, -34, -27, 2,
   -39, -18, 44, 13, 14, -28, -27, -12,
   -10, 23, 24, -9, -30, 1, 22, 23,
   -14, 10, 2, -28, 19, 11, 38, -28,
   33, 29, -21, -38, -53, -14, 40, -50,
   -40, 28, 16, -53, 26, 32, 26, 4,
   35, -16, 27, -21, -38, -13, -5, 36,
   8, -2, 3, 25, 24, 56, 1, -26,
   -18, -19, -5, -18, 9, -41, 14, 37,
   18, 39, 18, 0, -62, -21, 16, 0,
   18, -6, 35, 1, -24, -3, -34, -23,
   49, 16, 39, 11, 30, -28, -3, -19,
   -40, -6, 28, -23, 9, 19, 12, -6,
   -33, 12, -33, 13, 35, -65, -9, 31,
   32, 37, 3, -35, -14, 20, -42, 4,
   4, -45, -27, -19, -26, -37, -8, -1,
   43, -22, 20, 33, -22, -14, 11, -20,
   -32, -20, 37, 41, -49, -36, -28, -31,
   -38, -44, 38, 21, -4, -39, 6, 8,
   -2, -29, -20, -37, -3, 18, 9, 9,
   4, 18, -44, 19, 34, -20, 15, -45,
   29, -3, -31, 26, -16, 2, -14, -17,
   -1, -14, 24, 23, 0, -5, 41, -25,
   8, -34, -22, -30, -5, -17, 32, -7,
   -12, 4, 33, 78, 21, -15, 23, -19,
   58, 3, -43, 22, -48, 2, 16, 8,
   -36, -15, -31, 0, 23, -24, 19, 0,
   -21, -4, -8, -21, 43, -10, 13, -12,
   -5, -61, -21, 30, 2, 34, -3, 23,
   -50, 41, -82, -16, -2, -3, 39, 30,
   -25, -19, -23, -4, -29, -28, -4, -34,
   27, -34, -28, 19, -6, 35, 24, 29,
   7, -13, 14, -14, -13, 17, 21, -10,
   -31, -31, -18, 34, 1, 38, -24, -20,
   -29, -2, 20, 20, -14, 5, -33, 3,
   10, 21, -5, -9, 19, 5, -21, -5,
   10, -9, -28, -30, 22, -33, -4, -17,
   -5, 8, 31, -24, -19, -5, 6, 2,
   21, -43, 14, 25, -21, -27, -2, -29,
   -24, -47, 12, 15, 23, 6, -20, 29,
   -36, 25, -56, -2, 11, 49, 24, 1,
   -3, -19, -19, -20, -9, 1, -11, -20,
   28, 0, 23, 19, 18, -8, -22, 40,
   -3, -29, -3, 11, 4, -31, 39, 0,
   47, 16, 20, 20, 27, 11, -16, 19,
   32, -19, 4, 18, -38, -34, 9, -4,
   -19, 26, -32, 35, 16, -3, -30, -17,
   -11, 36, -44, 15, 2, 32, 13, -39,
   34, 26, 32, -33, -10, -55, 10, -31,
   -24, 12, 48, -12, -43, -56, 28, -22,
   -13, -42, -25, -15, -33, 22, 49, -10,
   2, 4, -35, -6, -14, 16, 5, 31,
   -51, -40, -3, -14, 40, 37, 36, -7,
   -5, -42, 25, 20, -38, 42, 33, -25,
   -1, 19, -9, -4, -19, 17, 21, 29,
   13, -1, -23, 44, -14, 10, -23, 22,
   -25, 11, 24, -20, -24, -38, -28, -28,
   -19, 39, 3, -27, 4, -24, 3, 34,
   0, 13, -13, -14, -32, -28, -12, -21,
   2, 34, 48, 33, -26, -20, 38, -27,
   -22, 39, -45, 13, -37, 37, -5, -43,
   15, 2, 1, -8, -48, -21, -36, 40,
   -48, 36, -38, -44, -22, -14, 0, 4,
   -6, 24, -7, 31, -1, 25, -24, 33,
   -44, 9, 34, 1, -27, 9, 42, -13,
   25, 31, 52, -20, 42, -28, 41, 6,
   -7, -15, 19, 41, -9, -18, -18, 25,
   0, 22, -3, 4, 21, 11, 14, 12,
   10, -24, -49, 36, -2, -64, -19, 45,
   -9, 6, 28, 16, -13, -5, -17, 20,
   39, 27, 5, 42, 6, -23, 9, -3,
   24, -25, -13, 21, 5, -38, -5, 6,
   2, 26, -14, 31, 6, 10, -29, -3,
   52, 17, 34, 32, -31, 12, 30, 26,
   -11, 38, 26, -35, 3, -43, 20, 44,
   20, -39, 43, -3, -2, 12, 31, 12,
   -28, 8, 44, 31, -10, -22, 27, 40,
   -62, 22, 32, -47, -19, 5, -6, -49,
   -59, 5, 0, 1, -1, 29, 34, 11,
   29, -14, -28, -36, 12, -33, -16, -39,
   2, -14, -12, -7, -14, -33, 18, -27,
   9, 46, -17, 13, 24, 53, -20, 11,
   5, -12, -10, -25, 2, -41, -11, 13,
   -27, -19, 56, -23, -32, 27, 34, 43,
   24, -29, 3, -29, 24, 38, 13, 2,
   41, 13, 11, -2, 5, 5, -25, 44,
   29, 15, -29, -27, 36, -13, 15, 49,
   -22, -7, 23, -8, 1, -53, 24, -4,
   -6, 26, -34, 23, -43, 34, 32, 30,
   13, -7, -35, 4, 35, -15, -15, -6,
   -16, -29, 7, 7, 38, -12, -38, -16,
   -9, 34, -43, 38, -22, -19, 21, 1,
   -4, 13, 12, 21, -11, -11, 33, 32,
   -13, 14, 22, -36, -16, -1, 34, -8,
   16, -5, 40, 6, -48, -17, 0, -64,
   23, -3, 2, -8, 24, -13, -45, 13,
   7, 43, 29, 8, -11, -33, 43, -5,
   21, -5, -74, -30, -41, 10, 18, -21,
   24, 14, 38, -22, 25, 40, -36, -36,
   -38, 9, 26, 11, 31, 50, -10, 19,
   24, 6, 7, 60, 23, 15, -19, -2,
   -34, 25, 22, 16, -4, -51, 13, 7,
   -31, 5, -7, -31, 51, 17, -1, -24,
   -1, 12, -36, 19, -33, -51, 50, -39,
   29, -44, -25, -13, 34, -3, 50, -13,
   -22, -27, 48, 22, -28, 15, -8, 34,
   18, 35, -29, 81, 39, 13, 21, 7,
   24, 40, -44, -33, 6, -47, -8, -6,
   19, -18, 12, 31, -31, -38, -14, 5,
   29, 43, -8, 44, 23, 31, 37, 52,
   14, 24, -11, 6, 29, -21, -9, 7,
   23, 29, -40, 0, 1, 37, 7, -47,
   25, 28, 0, 33, 4, 22, -4, 66,
   15, -34, 13, 20, 11, 15, 3, -43,
   -15, -1, -26, -65, -15, -20, 9, -23,
   41, 39, 8, -44, -9, 10, 8, -3,
   3, 15, -42, 26, -23, -9, 15, 32,
   41, 14, -3, 26, -47, 16, -24, -25,
   37, 16, 41, 32, -48, 45, 10, -28,
   -17, 1, -6, 38, 9, 33, -31, 45,
   32, -36, 18, -25, 19, -21, -2, 10,
   -27, -4, -5, 16, -6, 39, -49, 35,
   21, 6, -49, 5, -17, -21, -20, -20,
   -29, -11, 6, 31, -21, -44, 43, -30,
   7, 31, -40, -40, 29, 36, 30, 5,
   39, -23, 20, -5, 38, 27, 35, -23,
   0, 13, 11, -9, -45, 0, 10, 34,
   -24, -7, 28, 14, 15, -28, -20, -43,
   7, 5, -24, 24, 40, -35, 5, 30,
   11, -17, -24, -51, -24, 31, -36, 22,
   -28, -10, -29, 42, -52, 29, 13, -24,
   25, 28, 54, -30, -6, -5, 19, 24,
   41, 40, -3, 56, 74, 38, -19, -13,
   47, -44, -24, -5, -23, -6, -4, 11,
   5, 27, -13, -3, 24, -1, -38, -38,
   -35, 3, -5, 11, -39, 10, -27, 39,
   56, 50, 39, 6, 28, 9, 43, 13,
   32, 30, -4, 19, -26, 22, -47, -27,
   -17, -44, -37, 19, -18, -27, -9, 10,
   -24, 41, -17, -52, -32, 17, 27, -9,
   1, -15, 32, -27, 16, -27, 2, 0,
   1, -17, -32, -15, -34, 8, 17, 30,
   -22, -23, 24, 58, 24, 33, 39, 8,
   -6, 11, -5, -4, -1, -46, 20, -6,
   -31, 10, -23, 16, 2, -10, -34, 5,
   -32, -14, 42, 21, 32, -22, -26, 32,
   -32, 17, 10, 30, 25, -8, -1, 48,
   -12, 40, 43, -39, -41, 2, 36, 19,
   -6, -40, -5, 61, 9, 25, 6, 56,
   -14, 10, 7, 5, -34, 33, -26, -26,
   -39, -15, -14, -37, -62, -20, -25, 0,
   12, 46, 0, 27, 1, 13, -23, -23,
   36, -37, 1, 18, -27, -38, 3, -39,
   -53, -49, 16, -4, 2, 20, -12, 16,
   -19, 9, 13, 6, -41, -43, -19, 24,
   -19, -39, 30, -27, 3, 26, -19, -17,
   -21, 1, -33, 20, 25, 13, -43, 16,
   -44, 28, -28, 34, 4, 46, -40, 1,
   32, 22, 11, 17, 27, 39, -18, 29,
   26, 42, 46, 23, 3, 8, 2, 23,
   33, 14, -4, 5, 3, -57, 13, 1,
   10, 21, -34, 28, 6, 2, 3, 3,
   33, -14, 10, 17, 1, -1, -26, 21,
   19, -3, -31, -3, -10, -10, 32, -14,
   -1, 32, 24, -33, -42, 2, -30, -48,
   33, 3, 25, 17, 37, -27, -5, 19,
   1, -21, 21, -9, 4, -28, -73, -54,
   -11, 38, -57, -34, 6, 57, 19, -7,
   -12, -20, -22, -65, -72, -42, -40, 2,
   -50, -32, 14, -36, 23, 37, 23, -3,
   -18, 30, 17, 12, -31, -24, -46, -24,
   -41, 36, -50, 32, -18, 35, -33, -59,
   -25, 34, -11, -43, -28, -21, 8, -24,
   4, -80, 8, -15, 0, -13, 7, -18,
   7, -18, 46, 38, 9, 42, 44, -36,
   -1, -30, -52, 41, 25, 15, 24, 19,
   -1, -1, -23, 25, -12, 4, 26, -22,
   -54, 38, -49, -32, -38, -27, 9, -18,
   -23, -36, 31, -42, -33, -2, -29, 3,
   -41, -11, 38, -22, 24, -26, -31, -28,
   -13, 41, 19, -8, -34, 23, 2, -41,
   26, -46, 23, 23, -22, -37, 32, 18,
   -37, -8, 41, -11, -32, 17, 17, -21,
   6, 12, -16, -1, 12, 9, 24, 36,
   34, -17, 5, 8, -15, -4, -52, -24,
   -4, 15, 11, 24, -22, -19, 16, 23,
   25, 39, -41, 52, 34, 4, 32, 21,
   -29, -18, -39, -27, -21, -35, -20, -26,
   -14, -47, -46, 34, 62, -13, 7, 10,
   -25, 26, -12, -20, 51, -16, -21, 10,
   17, 4, -36, -6, 35, 23, -30, 1,
   -8, 3, 33, 36, 27, 35, 14, 39,
   31, 42, 21, 34, 17, -2, 17, -19,
   -13, 30, 21, -29, 39, -5, 11, 22,
   -23, -25, -33, 15, 13, 0, -3, -22,
   30, 9, -1, -7, -22, -38, 27, 30,
   16, 22, 25, 42, 20, 60, 9, -7,
   28, 30, -47, -43, -34, 15, -1, 12,
   30, -30, -2, 41, 43, -15, -4, 36,
   16, -19, -32, 5, 25, 34, -5, -32,
   17, -4, 31, -3, -36, 2, -14, 51,
   18, 26, -15, -4, -20, 10, -46, -23,
   -17, -54, 9, -14, 27, -34, -26, 56,
   -18, 53, -34, -11, 45, 23, 17, -15,
   32, 1, 0, 30, -16, 5, -21, 12,
   -18, 14, 55, 21, 21, 2, 1, 35,
   -38, -19, 28, 28, -21, -64, 20, 43,
   -16, 39, 32, 0, 3, -29, 6, 9,
   -19, -1, -21, 1, -34, -16, 41, 43,
   -6, -45, 19, 4, 8, 34, -41, 27,
   -15, 50, 65, 21, -35, -18, 30, -39,
   36, -64, 33, 46, -15, -44, -9, 41,
   -31, 21, -20, -4, 11, -45, -29, -27,
   -30, -10, -20, 35, -16, -34, -1, -45,
   12, -8, 34, 26, -38, -42, 12, -30,
   -50, 1, -11, -11, -7, 49, -23, -20,
   34, -9, 31, 35, -46, 42, 3, -30,
   -26, 7, -19, -18, -4, 36, 11, 26,
   -6, 4, -32, -25, -47, -45, -11, -18,
   -14, 20, -10, 4, -14, 48, 18, 45,
   9, -60, -17, 28, 13, 50, -23, 21,
   -28, 58, -12, -21, 50, -10, 25, -37,
   23, 29, 22, 53, -6, 6, 1, 73,
   -38, 28, 74, -4, 32, 19, 7, 43,
   -23, 16, 3, -21, 4, -44, -18, -51,
   -42, 29, -51, 2, 5, -6, 48, -1,
   -21, 0, 38, -20, -3, -35, 46, 53,
   16, -52, -58, 22, 8, -8, -3, 13,
   27, 30, -21, 42, 7, 24, 22, -46,
   -4, -2, -2, 16, 13, -3, -1, 33,
   -35, -54, -36, 36, -39, -26, 18, 28,
   -22, 11, 7, -36, -27, 9, -31, -46,
   5, 21, 38, 28, 16, -37, -24, 21,
   14, -45, 32, 16, 13, -3, 22, -54,
   20, 4, -8, -16, 17, -38, 2, -9,
   -20, 33, 22, -51, -24, 4, 8, -50,
   -11, 23, -8, 44, -47, -6, 37, 11,
   28, -22, -14, 14, -1, 14, 28, 36,
   28, 16, 20, -24, -33, -16, 44, 60,
   10, 12, -6, -19, -26, 5, -52, -20,
   -9, -42, 31, -13, -45, -11, 34, 8,
   11, -29, -25, -34, -11, -5, -5, 2,
   -31, -28, 2, -56, -56, -38, -55, 18,
   -15, -55, -28, -22, 22, 8, -12, -15,
   12, -28, 44, 1, -18, 15, -47, 42,
   -10, 44, 25, 17, -36, 1, -2, 11,
   -9, 31, -1, -18, 16, 31, 34, 11,
   8, -33, 2, 17, -47, -22, -8, -10,
   -28, 9, 31, 4, -37, -20, -48, -12,
   -26, 46, -13, -40, -34, 4, -34, -5,
   33, 17, 13, -14, -28, 22, -19, 16,
   -34, -1, -4, -24, 8, 6, 20, 33,
   -19, -22, 3, -43, -20, 51, 31, 11,
   24, -11, -10, -8, -23, -18, -1, 40,
   6, 28, 4, -26, -10, 11, -48, -43,
   -40, -18, 15, 13, 42, 35, -7, -2,
   -15, 42, 23, -15, -16, -11, -47, -7,
   -34, 15, 3, -38, 4, 22, -9, -34,
   74, 20, -15, -67, 10, 18, 22, -17,
   -56, 36, 54, 45, -1, -32, -33, -20,
   18, 53, -20, 18, 29, 11, -22, -35,
   -8, 38, -4, 15, 4, -21, -36, 16,
   -41, 28, 36, 53, 25, -16, -20, -47,
   21, 37, 9, -21, -14, -6, -4, 15,
   2, 9, -23, -32, 8, -47, 10, -53,
   16, -37, -39, 32, 17, 11, -27, 7,
   -22, 44, 25, 33, 34, -24, 3, -16,
   -29, 28, -10, -3, -32, 21, 24, 19,
   17, 34, -6, -19, 23, 5, -27, 38,
   19, 4, -10, -12, -19, 1, -18, 19,
   -59, 55, -7, -13, -16, -8, 18, 25,
   -24, -51, -29, -3, 22, 29, -26, 31,
   27, -35, 39, 1, 16, 26, 33, 2,
   32, 27, -13, -8, -38, -35, 46, -9,
   6, 22, 9, -64, 16, -26, -38, 29,
   -22, -24, 54, 1, -16, 25, 9, 16,
   17, -9, -60, 11, 7, -46, 5, -8,
   -24, -19, 29, 7, -11, -22, 25, -5,
   -14, -14, 6, -14, -8, -12, 46, -40,
   -37, -7, 11, -4, 49, 1, 19, -36,
   -23, -6, -43, 1, -10, -35, 31, 21,
   28, -15, -2, 37, -46, 19, -37, -13,
   39, -19, 15, 25, -42, -26, 58, 6,
   -11, -28, -27, 16, 1, -22, -8, -46,
   -17, 2, -6, -12, -31, 19, -46, -11,
   38, 12, 19, -14, 8, 6, 11, 20,
   30, -24, 13, 11, -27, 39, -13, 31,
   -7, 11, 26, -33, 9, 2, -27, 20,
   8, 15, 3, 38, -3, 22, -21, 0,
   -3, -40, 27, 10, 22, 24, -4, 11,
   2, 20, 17, 29, 6, 30, 2, 45,
   29, 44, 4, 23, -7, -34, 16, 66,
   40, -29, 44, -28, 0, -27, -55, 21,
   9, 0, 27, 1, 1, 38, 22, -22,
   -34, 28, -34, 29, -22, 10, 19, -17,
   32, -8, 12, 12, -38, 1, -42, -30,
   -15, 14, -21, 15, 40, -24, 5, -6,
   -2, -32, -47, -39, -5, 35, -22, -25,
   -32, -10, -40, 5, -1, 9, 32, -8,
   -17, -28, 17, -14, -25, 2, -26, -12,
   -29, 24, -9, -1, -28, 19, 10, -6,
   40, -31, 4, 44, -4, 11, -4, 10,
   -18, 35, -46, 1, 0, -52, 19, 50,
   15, 13, 34, 31, -8, -42, -22, 23,
   8, -40, 29, 32, 27, -2, -18, -44,
   -9, 28, -8, -1, 17, 28, -24, 25,
   1, -3, 36, -7, 26, 32, -18, 12,
   -9, 27, -27, -21, -41, 43, -10, 30,
   10, 15, -18, 13, -42, 9, 14, 13,
   35, 2, -22, 30, 10, 30, -15, -7,
   9, 1, 18, -9, -10, 1, -45, -26,
   -9, 47, -25, -1, 33, -13, 38, 15,
   22, 38, -59, 24, -13, -50, -53, 29,
   -19, 37, -14, -14, -46, 22, 24, 2,
   -39, -25, 7, -26, 3, 44, -2, -5,
   16, -42, -23, 8, -12, -66, 39, -24,
   -10, -35, 18, 14, 42, 11, -17, 36,
   21, -18, 11, -12, -50, 8, -34, 3,
   -4, -43, 12, 33, 12, -36, 37, 17,
   28, 16, 37, 23, -33, 4, -16, -32,
   -37, 17, 7, 19, 16, -5, -30, 29,
   22, 30, -5, 18, -26, -14, -19, 23,
   -17, 18, 41, 26, -4, 27, -26, 22,
   27, 10, 12, 24, -20, -25, -37, -13,
   15, 21, -35, 41, -25, -22, -19, -14,
   4, -46, 8, -10, -10, 9, -25, 34,
   -40, 44, -18, -17, 12, 18, 14, 12,
   49, 27, 23, 26, 15, 19, -47, 39,
   -11, 46, 15, 28, 7, 21, 26, -16,
   35, 39, 21, -2, -20, 2, 12, 29,
   14, -18, -27, -34, 19, -32, 11, -33,
   23, 1, 30, -26, 32, 47, -11, -11,
   -7, 5, -24, 23, -14, 56, -27, -4,
   5, -3, 42, -3, -55, -5, -47, -20,
   -12, 25, 23, 17, 47, 18, -22, -9,
   25, -25, -7, 0, 37, 23, 2, 35,
   -23, -34, -30, 0, 3, -40, -49, -3,
   21, 49, 31, -13, 20, 32, 3, 3,
   -11, -26, -46, 2, 35, 40, -4, 17,
   24, 13, 3, -25, -26, 47, -24, 19,
   12, -38, 15, -20, 17, -37, 34, 8,
   7, -17, 37, -5, 21, -49, 0, 12,
   34, -35, -17, 19, -8, 19, 15, 3,
   -18, 13, -23, -2, -19, 5, 5, -32,
   1, -11, -24, 45, -35, 26, 4, 23,
   -5, 40, 23, 10, 19, 40, 19, 30,
   56, 8, 25, -33, 6, 17, -12, 18,
   -50, -42, 45, 14, 24, -7, 7, -11,
   -1, 31, 16, 35, -27, -27, -28, -5,
   21, -19, 1, -10, -35, 0, 0, 8,
   -2, -29, -14, -29, 28, -44, 18, 31,
   -8, 47, -21, -3, -9, -36, 10, -20,
   24, 40, -31, -34, -26, -3, 25, 4,
   21, -22, -30, 20, 24, 38, 16, 0,
   33, -4, 45, 6, -22, -2, 22, 10,
   35, -26, 26, -34, 28, -4, -53, 12,
   -1, -9, 25, 8, -12, 12, -67, 1,
   15, -17, -6, -26, 25, 11, 36, -7,
   40, -11, 8, -5, -7, 1, -35, 26,
   -38, -15, -20, -17, 25, 4, 28, 18,
   23, 29, 32, -36, 2, 3, -7, 18,
   23, 20, 10, -2, 9, 27, 22, -39,
   -10, 50, 15, -28, 3, -52, -47, -6,
   -37, 1, -12, 21, 30, -35, -28, -10,
   33, 57, -35, -30, -58, 26, 3, 2,
   14, 9, -14, -22, 20, -25, -30, 30,
   5, 14, -19, -56, -46, -9, -2, -14,
   -12, 4, 44, 46, -27, -8, 0, -16,
   -2, -30, 2, 15, -49, -23, 18, 23,
   -34, 46, 39, -3, -21, -53, 7, 7,
   22, -29, 8, -19, -29, 27, -35, -18,
   5, -13, 17, -10, -30, 5, -29, -5,
   14, 6, 12, 33, -2, 4, 47, -25,
   -39, -6, 18, 24, 15, -43, 27, -5,
   15, 21, 11, 21, 44, 40, -35, -34,
   24, 21, 0, 14, 40, -8, -25, 15,
   -48, 9, 2, -14, 0, 0, 2, 6,
   -7, -16, -15, -6, -27, -7, -34, 13,
   1, 20, -7, 28, 42, 3, 6, 39,
   32, 17, -19, -18, 18, -27, -32, 6,
   28, 22, 38, 32, -20, -21, -2, 14,
   18, 17, 26, 50, 28, 31, 4, 5,
   -47, 48, 4, 10, 11, -61, -7, 12,
   53, -33, -24, -52, 22, -15, 23, -4,
   66, 6, 33, -44, 2, 37, 9, -17,
   -4, -9, 4, -22, 51, -12, -22, 32,
   30, -29, -24, -11, -21, 56, 19, -27,
   -19, -23, -30, 13, -17, 58, 9, 11,
   -3, -25, 7, 21, -10, -7, -15, 20,
   -2, 25, -35, 18, -35, -23, -42, -8,
   -24, -28, -18, 37, -33, 45, -14, 24,
   -15, 7, 25, -3, -7, 49, 60, -2,
   7, -36, -27, -32, 20, 25, 35, -40,
   -7, 12, 18, 22, -39, -16, -6, 18,
   5, 19, 19, 44, 30, -14, 28, 46,
   4, 37, -28, -6, -29, -38, 23, -35,
   4, -3, -29, 24, -44, -26, -33, -17,
   -9, 36, 0, -4, -44, 5, -21, 19,
   2, 10, 36, -11, 12, -32, -32, 4,
   33, -22, -1, -37, 30, -6, 12, -6,
   -28, 29, -21, -33, -29, 37, 69, -18,
   8, -38, -11, 37, -41, -37, -42, -36,
   38, 11, -21, -9, 21, -46, -10, 6,
   31, -61, 28, 22, -29, -19, -25, -6,
   37, 11, 34, 35, 28, -49, -21, 2,
   -56, -58, -7, -22, -41, 11, -46, -38,
   -5, -17, -9, 5, -28, -1, 46, 34,
   -11, 22, -29, 13, 28, 24, -10, -7,
   25, 39, -37, -28, 8, -41, 32, 14,
   -1, 33, 18, -52, 30, 21, 0, 36,
   29, -34, 9, 21, -32, 2, -10, -20,
   -29, 6, 10, -15, -41, 17, -21, 19,
   -15, 32, -15, 4, -39, 29, 28, 12,
   43, -24, -22, 25, 2, 35, -16, -2,
   41, 21, -41, -17, -27, 23, 15, -9,
   11, -25, 30, -37, -23, -47, -30, -13,
   -37, 4, -39, 20, 21, -13, -12, 6,
   -23, 3, -21, -38, 13, -9, 15, 10,
   -2, -5, 35, -42, -56, 12, -26, -16,
   -29, 33, 14, 8, -41, -7, -1, 28,
   52, 20, 42, 27, -35, 36, 24, -4,
   34, -29, 31, 8, -2, -20, -24, -21,
   -61, 3, 25, -40, -16, -10, -1, 42,
   -44, -14, -22, -17, -26, 22, 28, -40,
   4, 51, -22, 27, -54, 12, -28, -29,
   34, -38, -42, 51, -32, -19, -22, -11,
   4, 33, -28, -32, 39, -3, -25, -36,
   18, -33, -28, 9, 3, -10, -6, 5,
   -21, -25, 9, 2, 10, 25, 26, -5,
   -49, -41, 4, -1, 36, 19, 15, 18,
   40, -2, -10, 36, -2, -12, -21, 26,
   -25, -14, -31, 1, 13, 17, 23, -8,
   -18, -27, -3, -36, -17, 1, -30, -44,
   -38, -25, 34, -24, -37, 33, 3, -15,
   -29, 48, 0, 30, 3, 3, -21, -6,
   7, -18, 21, 24, 17, 6, -13, 41,
   -34, 44, -50, 1, -39, -45, -15, 10,
   -2, 22, -2, -16, 3, -36, 4, -7,
   -3, -12, 15, 4, 0, -9, 28, 49,
   -19, 35, -7, 27, 4, -32, 24, 7,
   -1, 0, 30, 55, -37, -10, 0, -52,
   0, -16, -28, -38, 17, -8, 33, -25,
   -3, -43, 2, 12, 28, 16, 17, -31,
   17, -4, -18, -22, 12, 36, 32, -47,
   33, -37, -36, -11, 26, -33, 6, -33,
   11, 6, 1, -29, 58, 7, -16, 36,
   37, 60, 49, -2, 7, 29, -17, 43,
   3, -9, -49, -26, 33, -23, -29, -6,
   -36, 30, -8, 60, -24, -23, -30, -1,
   35, 14, -19, -20, -44, -25, -30, 38,
   15, 24, -39, -37, 17, 4, 32, 40,
   -24, -34, -34, -1, -22, -43, 29, -12,
   41, 32, 21, 31, 28, 16, 32, 45,
   12, -32, -20, -11, -30, -8, -26, 0,
   -24, -28, -12, 34, -15, 0, -43, 36,
   19, -22, 28, 52, 16, 10, -37, 0,
   -14, 44, -44, -5, -16, -40, 5, 1,
   -25, 5, -15, 16, -19, -19, -19, 13,
   -34, 11, -19, -7, 4, -25, -24, -16,
   38, -16, -21, 16, -3, 19, -25, 16,
   1, 16, 5, 36, 6, -17, 23, -19,
   18, 28, 35, -37, -17, -38, 9, 29,
   -20, 27, -19, -21, -31, 45, -32, 31,
   -3, -1, -40, -9, -12, -6, -12, 8,
   -4, 17, 31, -31, -9, 17, 8, -15,
   -53, -26, 6, -40, -4, -48, 22, 0,
   10, 16, 37, 31, -13, 18, -23, 30,
   0, 7, 36, -16, 4, -10, -12, 1,
   27, -16, -10, -5, -10, 44, -20, -24,
   -2, 36, -41, -42, 36, 12, 22, 39,
   3, -5, 40, -19, 37, 28, -5, 0,
   -14, -31, 31, 5, -1, -21, 12, -21,
   -17, 45, 5, 1, -29, -12, 4, 27,
   -10, -2, -14, -35, -7, -2, 19, -33,
   -4, -25, -12, 0, 5, -37, 27, -49,
   -1, -30, -49, 12, 13, 15, -27, 10,
   -1, 18, 15, -5, -34, 70, -33, 11,
   0, -14, -25, 16, 15, 7, 6, 42,
   12, 6, 31, 7, -31, -11, -23, -28,
   -6, 30, 26, 18, 3, -48, 29, 29,
   24, 7, -41, -32, 11, 31, 12, 2,
   10, -7, 9, 32, -1, 52, 32, -28,
   -28, -55, 6, 13, 52, -7, 53, -35,
   3, 0, 38, 21, -23, 55, 27, 37,
   -24, 24, -44, 44, 7, 26, -15, -27,
   37, 35, -37, 4, -25, -51, 1, 1,
   35, 22, -3, -36, 39, -52, -39, 25,
   10, -28, -18, -18, -44, -29, 37, -26,
   35, -38, 0, 13, 1, -7, -1, 39,
   15, 25, -41, -7, 0, -7, 2, 2,
   -40, -35, 16, -24, -17, -39, -11, 24,
   -9, -20, 8, -27, 27, 16, 5, 58,
   58, -48, -27, -13, -40, -9, -28, -33,
   -5, -37, 30, 6, 2, -25, 13, -48,
   -3, -32, -13, -3, 21, -5, -2, -22,
   -47, -69, 25, 3, -10, 35, 36, -20,
   -25, -11, 42, 18, -29, 12, 31, 40,
   12, 33, 35, 31, -40, -3, 2, 41,
   1, 26, 13, -1, -9, -34, 14, 16,
   -19, 25, 1, -38, 2, 25, 5, 38,
   -26, 14, -37, 11, 22, -19, 14, -12,
   -12, 39, 35, -12, 28, 54, 8, 14,
   25, -13, 28, 15, -9, 2, 14, 18,
   32, -7, -8, -43, -19, -5, 43, 37,
   -31, -29, 34, -32, 33, 35, -13, -48,
   -8, -22, -16, 25, -45, -35, -2, -2,
   -42, -44, 25, 10, -30, -21, -27, -17,
   33, 14, -46, 14, -2, -38, -8, 7,
   17, 7, -19, 6, 22, -33, 5, 2,
   12, 16, -36, -25, -26, -17, 10, 48,
   10, 9, 45, -18, 54, -40, 23, -51,
   -27, -20, 0, 31, -17, -6, -14, 48,
   12, -48, -13, 59, -38, 50, -46, -26,
   38, 19, 33, 13, -14, -22, 11, -9,
   31, -41, 10, 1, 17, -7, -32, -29,
   24, 24, 1, -37, -15, 15, 21, 37,
   -32, -20, 11, 28, 43, -37, -47, -17,
   -49, -10, -22, -8, -20, 39, -16, -6,
   23, 13, -19, 45, 38, 8, 38, 25,
   -22, 10, 46, -13, 21, 47, -4, -16,
   21, 18, -13, -4, 43, 9, 12, 20,
   23, 33, -3, 19, 44, 7, 25, -1,
   -22, 43, -9, 9, 10, -53, -27, 27,
   20, 21, -15, 34, -11, -7, -20, 29,
   16, -14, 26, 0, 9, 16, -3, 45,
   46, -29, -8, 34, 3, -18, 15, -7,
   5, 13, -17, 20, 20, 13, -48, 2,
   -20, 27, 16, 30, 1, -36, -37, 6,
   -10, -28, 33, -30, 23, 32, 23, -6,
   -10, 19, 20, 28, -39, 34, -25, 21,
   8, 39, 30, 32, -44, 22, -1, -27,
   -45, -7, 15, -4, 32, -9, -40, 26,
   -27, -16, -9, 4, 7, -20, 8, 35,
   7, -25, -37, -1, -36, 0, 8, -11,
   -5, -20, -23, 43, -15, 17, -32, -32,
   -21, -10, 1, -19, 30, -29, 2, -26,
   23, 55, -23, -32, 19, 0, -12, -6,
   -12, 27, -19, 3, -20, 4, -48, 8,
   -33, 1, -23, -36, -22, 31, 25, 41,
   10, -2, -24, 5, -40, 47, 27, -6,
   24, -18, 10, 8, 20, -11, 2, 46,
   -26, 24, -10, 25, -12, -34, -21, 21,
   -19, -11, 32, -31, 23, 23, -6, -42,
   15, -43, 26, -1, 17, 21, 31, 40,
   12, -30, 5, 17, 26, 9, -1, -39,
   -1, -34, -9, -28, -8, -16, 49, -1,
   8, -32, -22, -68, -55, -20, -2, 10,
   -34, -6, 29, -4, 50, -37, 6, -13,
   30, -16, 28, -21, 22, 38, 20, 37,
   -27, -30, 29, 7, -14, 14, 14, -30,
   13, -35, 31, -28, 4, 42, 42, -41,
   44, -2, -5, 8, -29, 26, -12, 10,
   39, 21, 39, -12, 29, 11, -20, 24,
   -28, 22, -9, -4, 3, -37, 24, 31,
   17, 0, -12, -17, 16, -24, 25, -16,
   27, -1, -21, 18, -39, -8, -5, 40,
   3, 42, -41, -8, -46, -2, 20, 26,
   -31, -27, -23, 41, 12, -52, 20, -18,
   8, 34, -36, -26, 6, 12, 20, 21,
   -32, 21, -37, 50, -39, 12, -2, -22,
   -19, -10, 1, 4, 17, 2, -38, 25,
   18, -40, -34, -28, 43, 19, -22, -4,
   -27, -45, 37, 6, 39, -44, -37, 29,
   -25, -24, -18, -39, 27, -23, 5, 22,
   21, 24, -53, -9, 48, -28, 30, -41,
   -2, 34, 13, -44, -29, 31, 11, 1,
   28, -16, -19, -39, 2, 1, 4, 1,
   -5, -54, 6, -17, -9, -23, 38, -30,
   -39, 32, -2, -11, -15, 43, 12, -9,
   25, 15, -5, -3, 8, 15, -9, -18,
   29, 28, -26, 44, -43, -9, 15, -43,
   15, 17, 11, 16, -65, -2, 51, -40,
   0, -1, -50, 4, 18, 29, -29, -32,
   20, 36, 22, 34, -16, 3, 27, -20,
   -15, 34, -24, -6, -28, 44, -1, -30,
   43, 24, 27, -9, -7, 28, -8, 39,
   27, -4, 41, 14, 28, 6, 26, 4,
   -40, -58, -17, -26, 24, -1, 24, 38,
   -38, -44, -13, 24, -51, 18, 25, -16,
   -10, 25, 10, 30, 2, 0, 28, 30,
   15, -15, -6, 53, -33, -66, 36, 2,
   -3, -2, -49, -39, -41, -1, -32, 37,
   28, -43, 32, -7, 45, 22, 46, 17,
   19, -45, -37, 9, -23, -35, -45, -6,
   -5, 19, 43, -18, 31, 11, -38, -3,
   -26, -27, 21, -16, -42, 1, 26, -31,
   -21, 7, 37, 28, -27, 42, -1, 5,
   -20, 24, 36, -5, 34, -29, -1, 44,
   -37, -11, 23, 37, -21, 0, 6, -10,
   5, 36, 6, -35, -16, 1, 54, -46,
   -23, 43, -7, 14, -29, 32, 10, 29,
   43, -15, 8, 25, 32, 40, 16, 44,
   -25, -43, 9, 28, 27, 23, -16, 36,
   52, -4, 11, -8, 24, -13, 32, 22,
   -23, -18, 28, 0, 18, 8, -38, 10,
   -3, -3, 15, 1, 17, 17, 28, 16,
   43, -25, 44, 16, -1, 39, 13, -28,
   41, 34, 47, -1, 42, 44, -25, 0,
   -11, -2, 66, 0, -15, -23, 7, -7,
   -12, -32, 18, -56, 33, -34, 2, -30,
   27, -7, 14, 9, -55, -19, 33, 42,
   61, -32, 37, -32, -57, 40, -62, 28,
   -14, -7, -23, -26, -31, 1, -51, 68,
   -2, 18, -8, -28, -27, 34, -25, 38,
   49, 0, 24, 23, -44, 32, 14, 18,
   -13, 13, 15, 16, -46, 51, 9, 30,
   15, -25, 49, 39, -5, 1, 44, 22,
   -8, 21, -25, 17, -25, -38, 25, -20,
   -8, 9, -25, -12, -23, -35, 32, -31,
   -43, -19, -10, 41, 34, -13, 14, -20,
   51, 15, 21, 21, 12, 18, 6, 21,
   -9, -5, -18, 9, 26, -9, -41, 32,
   14, -8, 13, -13, 7, 49, 3, -36,
   9, -33, -28, -17, -38, -2, -44, -5,
   -23, -13, 39, -40, -7, -10, 36, 22,
   -40, 25, -17, -4, 1, 35, -17, 40,
   13, 32, -29, -17, -10, 2, 2, -18,
   13, -17, -18, 51, -28, -1, -48, -13,
   17, 6, 12, 34, 11, 10, 5, 20,
   -39, 20, 55, 10, -25, 1, -5, -5,
   6, 46, 3, -16, 26, 1, 21, 37,
   0, -13, -7, 8, -15, 0, -20, 53,
   12, -25, 38, 32, 20, 4, -14, -24,
   -4, 5, 15, -7, 30, 7, 21, -11,
   27, -28, 23, 23, -46, 19, -34, -14,
   -9, -56, -12, -39, 34, -48, 21, -25,
   27, -3, -23, -39, -7, 34, -64, 2,
   -35, -18, -39, -40, 16, -40, -18, -34,
   -39, 9, 46, -11, -21, 1, 21, 30,
   6, -1, 31, 23, 25, 66, 29, -44,
   19, -31, 14, -21, -38, 51, -31, 2,
   41, -6, 22, 11, -13, 14, -22, -42,
   34, 22, -39, -54, -19, -32, 4, -9,
   -25, -42, -6, -7, 13, -3, 39, -18,
   -40, 14, 55, -8, -25, -26, 7, 29,
   -17, -6, -23, -1, -21, 9, 16, -2,
   -4, -29, -7, -39, 28, 50, 11, -39,
   -14, -43, -39, 37, -9, -4, 27, 6,
   39, 5, 29, -27, 40, 9, -16, 34,
   13, 7, -36, -25, 1, -27, 26, -35,
   0, -12, -14, -23, 36, 36, -22, 3,
   -7, 34, 12, 37, 30, 42, -36, 27,
   -38, 26, 23, -12, 5, 3, -12, 21,
   -34, 9, -11, 48, -32, 6, 56, 42,
   -12, 6, -19, -39, 6, 0, -3, 26,
   -3, -1, 58, 8, 32, -21, 27, -1,
   -6, -21, 15, -42, 5, 45, -22, 35,
   -16, 34, 19, 31, -23, -4, 11, -17,
   -38, 7, -27, -16, 9, 28, 21, 15,
   17, -41, -32, -6, -28, -21, 14, 48,
   31, 35, 1, -8, 19, 26, 7, 34,
   25, -34, -6, -37, 4, -39, -2, -36,
   11, -32, -24, -54, 32, 23, -23, 14,
   -38, -44, 59, 30, 1, -22, -43, -50,
   -59, 4, 33, 12, 15, -27, 24, -6,
   -25, 48, 29, -2, -4, 16, 5, 22,
   7, 43, 12, -31, 17, 36, 44, 2,
   -12, 45, 5, 7, 5, -33, 14, -22,
   23, -17, 5, 31, 25, -7, -24, -13,
   -3, -20, 28, -14, 19, 16, 49, 32,
   -11, 9, 25, -6, -34, 43, -3, -1,
   54, 4, -40, 27, 38, -11, -26, -4,
   -13, 32, 12, -54, -28, 38, -58, 13,
   -7, 20, -5, -48, 0, -66, 27, -28,
   44, -40, -40, 4, 29, -33, -14, -29,
   0, 22, 5, 23, 33, 19, 19, 22,
   15, -27, -22, -20, 9, -12, 50, -20,
   23, 1, 2, -1, 13, 18, 26, -29,
   21, 6, -40, -23, 22, -15, -49, -16,
   36, -42, -25, -24, 45, 12, -22, 38,
   2, -31, -15, -1, 43, 31, 7, 17,
   -11, 22, -25, -34, -32, 11, -9, -10,
   -21, 72, 46, 27, -22, 46, 12, -6,
   30, 1, -59, 16, 12, 20, -16, 47,
   20, 15, -56, 22, -20, 93, 39, 21,
   -21, -26, -37, 29, 27, 17, 22, 21,
   -38, -30, 33, 18, -55, -19, -34, -14,
   -1, 26, 10, 31, 51, -14, -4, -43,
   19, -26, -10, -28, 29, 21, -29, 6,
   -35, 59, 23, 32, -53, 30, -16, -4,
   9, -4, 3, -11, -9, -59, 18, 34,
   53, 25, -4, -44, -13, 8, -1, -16,
   -22, 12, 45, 47, -35, 5, 12, 14,
   -24, 25, 17, 20, 30, -11, -42, 14,
   7, -32, -66, -14, 29, 12, 19, 11,
   -3, -3, 4, 21, -7, 7, -4, 40,
   28, 17, 28, -17, -20, -18, 41, -31,
   -37, 28, 53, 23, 22, 2, 18, 34,
   -32, 37, 10, -19, 15, -14, -3, 41,
   48, 2, 14, -47, 43, 29, -34, -34,
   34, 34, 45, -24, -38, 28, 13, 0,
   64, -25, 18, 44, 58, 29, -43, 44,
   8, -16, 31, -24, 20, -10, -4, 56,
   5, 5, 13, -17, -26, 17, -19, -26,
   51, 45, 7, -13, 13, 28, 41, -12,
   38, 29, -16, 9, -12, -16, 30, -16,
   -48, 1, 31, -13, 45, 12, 14, 45,
   -23, 45, -32, 5, 4, -15, 45, 19,
   25, 0, 1, 2, -14, -4, 22, -16,
   -5, -5, 15, -38, 31, -8, 23, 4,
   45, -34, 9, -20, -44, 22, -24, 47,
   6, -18, -18, 41, 30, -40, 13, 12,
   38, -1, 22, -27, 36, -34, -2, 20,
   -34, 12, -25, 24, -40, 48, 49, 44,
   34, -24, -44, -41, -42, -12, 13, -6,
   34, 12, 28, -20, -2, 33, -10, -6,
   21, -20, 0, 29, 33, -40, -9, 28,
   -7, -43, 19, 63, 29, -2, -26, 23,
   -6, 4, -6, -33, -52, -43, -9, 36,
   -37, 36, 46, -24, -8, -13, 6, 26,
   -25, 13, -7, -53, 28, -22, -20, 20,
   6, 35, -9, 13, 11, -23, 27, -7,
   5, -24, -15, 20, 21, 7, -36, -31,
   -10, -24, -2, 13, -24, -14, -19, 12,
   39, -14, 23, 23, -52, 3, -3, 26,
   7, -22, -46, -19, 9, 18, -9, 18,
   4, 44, 38, 12, 6, 9, -31, 1,
   -32, -34, -29, -15, 5, 1, 17, -25,
   20, 1, 34, -6, -21, 35, -51, -13,
   -11, 35, -23, -8, 36, 31, 12, -20,
   -23, -42, -9, 29, -15, 0, -10, -26,
   -11, 25, 17, 12, 3, -33, -56, -33,
   -38, 27, -35, -37, -28, 8, -30, -35,
   -21, -41, 19, 17, 1, -8, 32, 20,
   -7, 46, -30, 23, 41, 4, 34, -15,
   7, -8, -26, -26, -21, -38, -9, -17,
   32, 72, 10, 0, -4, 27, -34, -45,
   -13, -6, -36, -32, 12, 10, 3, 23,
   -4, -22, -14, 3, 23, 60, 13, 43,
   35, -75, 21, 49, -35, 12, 5, -5,
   19, 20, 6, 6, 22, 33, 13, -14,
   5, -13, 18, -28, 8, -29, -41, 16,
   11, -6, 10, -22, 11, -3, -40, -18,
   21, -9, 0, 3, -41, -1, 62, -22,
   11, -27, 25, 26, 26, 53, 63, -38,
   27, -31, 22, 18, -9, 10, -36, 10,
   35, -21, -16, 39, 41, 3, 47, 14,
   48, -30, 22, 34, 44, -19, 23, 40,
   5, -32, -2, 35, 24, -53, -17, 31,
   -53, 32, -15, -9, 30, -18, 32, 37,
   15, -41, -17, -30, -28, 27, 47, 34,
   6, 35, 1, -39, 21, 36, -8, 34,
   -24, 24, -30, -10, -63, 31, -15, -39,
   -25, -3, 29, 63, 17, -26, 35, -18,
   1, -7, -48, -52, 48, -1, -20, 11,
   -46, -42, 4, -7, 21, 28, 20, -56,
   22, -19, -11, 32, -47, 1, 33, -48,
   -29, -37, 12, -3, -1, 21, -26, -47,
   -3, 23, 22, -20, 4, -39, 0, 2,
   -5, -52, -15, 2, -56, -11, -18, -12,
   31, 3, 3, -15, 15, -41, 1, 26,
   24, 7, 21, 9, 10, 11, 7, 25,
   10, 21, 9, 11, 5, 38, -40, -29,
   8, 8, -4, 3, -33, 6, 11, 6,
   28, -8, -36, 29, -32, 34, 2, 3,
   -22, -36, -33, -14, 15, -8, 33, 32,
   -29, -19, 48, 30, -30, 46, 12, -44,
   8, 0, -16, 1, -20, 39, -13, -46,
   7, 4, -28, 20, -32, -39, -13, 8,
   14, 36, 36, 6, 28, 10, -38, 3,
   32, 13, -15, 14, -21, 28, 11, 45,
   29, -16, 6, 30, -24, 26, -6, 32,
   27, -13, 30, -18, 23, -4, 27, -38,
   1, -38, 5, 9, -23, 16, 12, 1,
   -37, 18, 21, 5, -14, -10, -2, 15,
   -1, -10, -33, -27, 35, 10, -15, -19,
   36, -30, 1, 17, 24, -9, 12, -16,
   16, 18, -31, -18, 0, -20, -25, -19,
   13, 40, 9, -14, 2, -29, 5, -1,
   39, -17, 28, -24, -5, 38, -1, 44,
   -39, 20, -25, 12, 22, -36, 11, -23,
   9, 10, 11, 38, 18, 1, 22, -34,
   24, -26, 36, 1, 3, -5, -38, -35,
   -11, -8, 25, -40, -8, 17, 37, -17,
   -16, -11, 31, 37, -20, 6, -39, -27,
   31, -1, -5, -18, 1, -24, -34, -29,
   17, 9, 10, 19, 27, 6, 22, 5,
   11, 34, -20, -30, 2, 19, -39, 12,
   3, -48, 8, 12, -7, 18, -19, -10,
   -26, -6, 12, 15, 11, 5, 26, 33,
   -16, 18, -7, -16, -3, 44, 28, 33,
   9, 7, 26, 40, 2, 27, -27, -13,
   -28, 35, -15, -41, -62, -26, 19, 53,
   -12, -22, 5, -3, 27, 8, -26, 5,
   -19, 35, -19, 32, -15, -22, -32, 15,
   -7, -20, -10, -40, 4, 43, 29, -8,
   -26, 17, 11, -28, 33, 17, 11, -8,
   20, -26, 49, 30, 14, -21, -1, 40,
   -9, -4, 46, 15, -20, 5, 31, 28,
   -43, 4, 23, -36, -22, 25, -22, -23,
   44, 15, 32, -32, -45, -43, -35, 28,
   -21, -30, 12, 35, -40, 14, 24, 32,
   30, 29, 12, 23, -3, 15, -27, 29,
   8, -8, 24, -20, 22, -33, -3, -3,
   -6, -7, 29, -21, -10, -27, -2, -16,
   -50, 5, 19, 32, 33, 23, -34, -27,
   22, -26, -12, 47, -9, 57, -6, 14,
   -45, -4, 3, -11, 0, 21, -23, 14,
   -37, 8, 10, 22, -36, -12, 23, 23,
   2, 31, 55, -12, -29, 5, 1, -28,
   6, -17, -15, 9, -12, -2, -18, -36,
   19, -10, -33, -12, -43, -8, -42, -7,
   -46, 23, 38, 11, -29, 10, -20, 28,
   11, -18, -45, -32, 45, 22, -23, -7,
   -6, 3, -17, -16, -50, -19, -37, -1,
   -14, 2, -16, 0, -52, 47, -12, -18,
   -18, -9, 21, -29, -39, -28, -33, -55,
   -11, -32, -6, 23, -34, 3, -31, -42,
   -5, 39, -16, 42, -19, 17, 15, 9,
   -53, -8, -13, 14, -33, 23, -23, -11,
   47, -4, -26, 26, -38, 43, 32, 29,
   -10, 12, 40, -33, -36, 25, -38, 36,
   -19, -19, -12, 5, -25, 8, 36, 12,
   -24, -16, -21, -26, -21, -37, -44, 42,
   15, 36, -3, -26, 26, -44, 8, -13,
   23, 17, -5, -25, -22, 22, -39, 11,
   -36, 34, -13, -9, 18, -29, -22, -10,
   -10, -15, 12, -31, -28, -57, 19, 36,
   1, -35, 18, 13, 6, 38, 28, 0,
   20, 34, -3, 10, 31, 46, 26, -49,
   26, -7, 31, -6, -8, 21, 20, 18,
   -29, -14, -46, -29, 7, 34, -17, -47,
   -17, 10, -16, -24, -24, -32, -1, 23,
   -3, -17, -27, 35, 30, 0, 35, 25,
   6, 10, -12, -45, -38, -52, -16, 29,
   2, -17, -36, 10, 50, 44, 16, -31,
   28, -33, 7, -13, 16, 32, -31, -33,
   -30, 43, 31, 29, -32, -2, -18, -21,
   8, 1, -2, -35, -20, 3, 3, 21,
   -26, -5, 20, -16, -21, 32, 3, 14,
   0, -27, 13, 3, -13, 38, -6, 11,
   10, 18, 1, 28, -23, 12, 7, 39,
   -44, 6, -42, 44, 22, 35, 21, -15,
   24, -34, -18, 6, 39, -11, -48, 40,
   -50, 27, 3, 21, 40, 3, 4, -14,
   -4, -23, -32, -21, 19, 43, 15, 27,
   -18, -30, -38, 11, -2, -21, 23, -43,
   8, 27, 21, 16, -24, 35, -15, 17,
   19, 29, -21, 24, -17, 13, 1, -13,
   -19, -39, -26, 44, 14, -51, -53, -32,
   -9, 33, -41, 23, 2, 12, 18, -12,
   -28, -22, 18, 11, -29, -20, -17, 2,
   46, 11, 60, -4, -40, 34, 37, -43,
   29, 51, -2, 28, 29, 48, -14, -10,
   -9, 6, -11, -6, -12, -32, 33, -43,
   -2, -2, 3, 27, 38, -15, -22, 26,
   30, -5, 28, 3, 11, 36, 34, -23,
   -39, 42, -29, 43, 21, -27, 57, -18,
   33, 22, 24, 38, 8, -62, -10, -5,
   -25, -27, -7, 29, 11, -36, -28, -33,
   31, 17, -4, 3, -27, 48, 27, 5,
   29, 53, -39, 37, -9, 19, -26, 15,
   23, 3, 14, -7, 16, -11, 38, 8,
   18, 0, -26, -23, -5, -46, -24, 15,
   35, 24, 4, -7, -25, 12, -31, -29,
   22, 6, 20, -24, 15, -7, -23, -47,
   -11, -15, -32, -32, 60, 18, -20, -25,
   -57, 13, -48, 6, -34, 8, 22, -26,
   -26, 38, 35, -3, 18, -55, -5, -7,
   -16, -8, -22, 10, -23, -10, 40, -25,
   27, 5, -47, -21, 55, 39, 13, 17,
   34, 25, -24, 0, -11, 15, 30, 6,
   22, -7, -17, -18, 18, 26, 40, -17,
   -19, 42, 22, -20, 44, 28, -41, -24,
   -15, 9, -5, -14, 8, -14, 32, -18,
   32, 10, 34, -11, 37, 1, -26, 56,
   41, 25, -27, -5, -26, 59, -1, 28,
   -22, 38, -23, 6, 37, -8, 34, 17,
   -57, -25, -18, 14, 94, -7, 63, -41,
   81, -84, -15, 35, -19, -2, -52, 7,
   -55, 5, 33, 65, -18, 5, -17, -4,
   -1, 19, -50, -9, 21, 43, 31, 10,
   68, 39, 40, -12, 14, -18, -9, -41,
   -8, -21, 58, -32, 22, -14, 11, -7,
   38, -34, 54, 126, 11, 34, -31, -22,
   53, 62, -21, 2, -38, -19, 17, -35,
   -18, 8, 23, -44, 11, -1, -77, 51,
   6, 7, 58, -1, -31, -20, -20, 21,
   -37, 14, 58, 25, 64, -35, -18, -26,
   46, 6, 12, -30, 6, 23, -28, -22,
   -11, -10, 3, 115, -4, -6, -10, -6,
   -61, 52, -11, -14, -38, -24, -19, 7,
   9, -48, -10, 12, 19, 4, 37, 12,
   -12, 11, 23, 28, 13, 53, 36, 68,
   48, 44, -25, 45, 43, 5, 41, -23,
   -6, -19, -40, 17, 11, -33, 12, -1,
   -9, 13, 26, -4, 16, 4, 68, -31,
   22, -68, -17, -3, -96, -24, 5, -21,
   -85, 55, -67, 49, 72, -46, 19, 37,
   0, -41, -87, 9, -68, 5, -11, 40,
   -20, 15, -21, 25, 13, 54, -15, -66,
   21, -35, -57, -22, -30, -4, -49, -67,
   16, 10, 6, 4, 39, -10, -44, 30,
   4, -8, -75, -7, 26, -1, 21, 28,
   -32, -20, 17, 29, 91, -15, -30, -54,
   42, 62, -13, 32, 27, -1, 30, -31,
   2, -19, -20, -41, -10, 17, 59, 24,
   18, -35, -10, 13, 2, 51, -33, 28,
   -47, 40, -32, 42, 112, 63, 11, 1,
   3, 44, 9, 19, 12, -43, -23, 49,
   -15, 48, -13, 35, 30, -27, 45, -12,
   -12, 8, -5, -16, 27, 2, 11, 92,
   14, -50, 74, 44, -20, 40, 1, 62,
   -23, -34, -45, 41, 41, -32, -28, -6,
   -17, -4, -26, 8, 70, 58, 1, 17,
   99, -67, 28, 56, -30, -35, 20, 40,
   -41, 42, -15, -35, 11, -3, 19, 31,
   -34, -4, -25, 22, -44, 24, 7, -26,
   17, 26, 97, 44, 56, 11, 3, -46,
   54, -44, 49, -33, -33, -12, 12, -22,
   3, 44, -22, 106, 92, -21, -90, -61,
   3, 52, -47, -36, 44, 12, -31, 10,
   5, -52, -42, -23, 16, -23, -44, -36,
   33, 11, -18, 3, -13, -1, -22, 7,
   -33, 9, 18, 14, 43, 60, 39, 1,
   1, 10, 73, 5, -23, -20, 28, 24,
   -14, 19, 17, 116, 96, 53, 38, 27,
   -21, 62, -57, 3, -34, -18, 14, 34,
   -41, -4, -23, -50, 36, -8, 51, -16,
   -5, 19, 20, -27, -23, 51, 3, 100,
   16, 0, -14, -45, 62, 28, 1, 31,
   25, 17, -1, -11, 36, -12, -2, -54,
   -21, -2, -17, 17, 53, 8, -25, 3,
   63, 15, 5, -26, -46, 30, -47, 12,
   -25, 93, 33, 42, -6, -42, -10, -23,
   -22, 52, -37, -33, -39, 42, 26, -6,
   46, 23, 74, -10, 40, 41, -16, -21,
   -30, -14, 10, 36, 34, -56, -13, -41,
   36, -18, 47, 108, 59, 64, -54, -33,
   -66, 32, -56, -38, 21, 25, 12, 28,
   5, 21, 13, 8, 83, -38, -27, 15,
   9, -15, -43, -5, 13, 24, 10, 28,
   1, 68, -9, -29, 53, 32, 9, -8,
   47, -23, 18, 44, 2, 7, 21, 34,
   6, 15, -34, 52, 17, 28, 32, 15,
   14, 52, 55, 3, 16, -21, -18, 28,
   -14, 2, -5, 5, 61, -58, 75, 44,
   32, 2, -48, -34, 25, 7, 20, 61,
   0, 44, 3, -19, 39, 17, 37, 60,
   -6, 14, -57, -43, 21, 13, 28, 6,
   -23, -7, -39, -18, 16, 52, -75, 15,
   39, -6, -76, -4, -4, 19, 4, 30,
   -67, -17, 4, -30, 111, 9, 23, 35,
   -14, 59, -73, 17, 27, 17, 35, -46,
   34, -49, 49, 19, 58, 16, 32, 3,
   20, 3, -23, 42, -17, 55, -25, -17,
   37, 5, 47, -128, 6, 14, -21, 92,
   -15, -6, -39, 0, 28, -9, 3, 53,
   -26, -12, -26, -8, 0, 25, -25, -7,
   -27, -32, -28, -44, -1, 1, 7, -32,
   -15, -73, -40, 64, -32, -42, -32, 2,
   -42, 5, -8, -23, 13, 36, 36, -20,
   10, 10, -30, -42, 4, 38, 6, -49,
   3, -13, 3, -9, 31, -10, -18, -31,
   -56, -60, -63, 11, 20, 9, 7, -47,
   -28, 35, 3, -41, 0, -86, 38, -45,
   13, -2, 28, 73, -69, -44, 16, -62,
   -46, -38, 4, -9, 4, 18, -45, 0,
   -23, -109, 68, 2, 24, -17, 19, 46,
   97, 7, -51, 60, -36, -28, -26, -10,
   43, 16, 5, -11, -13, 50, 20, 11,
   29, 18, -47, 34, 55, 15, -12, -32,
   16, 27, 127, 3, 18, 23, 25, -12,
   -65, -22, 77, 21, 11, -36, -15, 26,
   -33, 30, 15, 81, 17, -31, 25, 3,
   -68, 92, 48, 4, -26, -1, 4, -17,
   -46, -41, 27, -21, -41, -57, 44, 44,
   -2, 39, -2, 21, -51, 8, 25, -14,
   1, -28, 17, -58, -6, 38, 36, -18,
   12, 24, 1, 21, 30, -24, 21, -6,
   16, -48, -2, 20, 32, -39, 6, 35,
   -28, 22, 21, -11, -57, 17, 5, -42,
   52, 11, 36, 0, 33, -37, 1, 1,
   14, -20, -5, 5, -12, 48, -2, 52,
   13, 53, 15, -80, 48, -13, 16, -33,
   59, 52, 12, 24, 42, 13, 49, 8,
   -43, 85, 25, 8, 72, 11, 25, -6,
   37, 9, -20, 34, -64, 1, 2, 64,
   -26, -39, -36, -21, 14, -24, -28, -13,
   -76, 12, -8, 25, 28, 26, -1, -1,
   -14, -33, -57, 20, -17, 10, 11, -27,
   36, -9, -32, 28, 13, 15, -15, -16,
   40, -38, 12, -66, -1, -22, 16, -9,
   53, 10, 46, -20, 89, -36, -44, 33,
   -25, 61, -2, -1, -54, -17, -68, 14,
   -29, -51, -69, -49, 56, 51, -22, 53,
   -50, -26, 31, 82, 40, -43, -10, 29,
   26, -8, 8, 1, 59, 13, 9, 18,
   5, -12, 11, 1, -16, 54, 5, -4,
   -65, -54, -32, -8, 78, 0, -38, 34,
   -76, 19, -55, -69, 22, -15, -9, -25,
   -22, -30, -64, -44, -9, 1, -10, 31,
   10, -34, 16, 30, 14, -9, 3, 2,
   -1, 27, 18, 9, 17, -8, 30, 19,
   -7, 39, 49, 36, 31, 48, 10, -9,
   -10, -28, 55, 19, 38, -49, -7, -14,
   100, 3, -20, 35, 20, 29, 55, -33,
   13, 59, 13, 81, 45, -38, 25, 12,
   -34, -6, -1, 31, 17, -15, -25, 65,
   -66, -6, 46, -14, -25, 35, -13, 7,
   -3, 25, 40, -15, -51, 12, 52, -21,
   16, -3, -3, -34, -29, 53, -30, 89,
   -21, 18, 46, -45, -121, 49, 98, -3,
   -5, 3, -4, 44, -65, 21, -83, 14,
   8, -23, 24, -23, -28, -52, 9, -13,
   31, 45, -28, -19, -20, 11, 34, 7,
   13, -47, -43, -1, -52, -73, 11, 61,
   68, 34, -4, 13, -69, 10, 7, -44,
   63, -73, 70, 28, -66, 7, 27, 40,
   -15, 31, 72, -34, -43, 26, 75, -54,
   16, -70, -40, -35, -4, 25, 46, -32,
   38, 37, -10, -16, 27, -15, -13, -37,
   4, -108, 31, -12, 25, -55, -34, 47,
   -22, 44, -13, 48, 3, -23, 33, 0,
   18, -19, 44, 52, 60, -1, 9, -50,
   39, -13, -14, -57, -23, 22, 18, -50,
   28, -128, -33, 4, 36, 26, 1, -5,
   34, 19, 9, 45, -12, -11, 3, 9,
   0, -12, -11, -83, -79, -37, 48, 79,
   9, -2, 97, 43, 49, -18, 11, -7,
   -16, 32, -1, -9, -48, -61, 1, 18,
   -48, -32, -8, -31, 51, 49, -50, -52,
   -44, 40, 20, 15, -53, -3, -1, -9,
   -53, 28, -17, 13, 9, 16, 28, 8,
   14, -57, 0, -128, -62, -1, -15, -23,
   -12, -19, 47, -43, -26, -12, 34, 12,
   0, -13, -10, -64, -37, -9, 25, -3,
   -21, -47, -5, -28, 39, -41, -46, -13,
   0, 15, 32, -11, -35, 18, -35, -25,
   -22, 0, 23, 25, 37, 38, -27, 38,
   -4, -70, 77, -26, 29, -70, 80, -12,
   16, -42, 10, 41, -37, 55, -44, -9,
   4, 25, 13, 10, 7, 1, 42, -35,
   -33, -7, -10, 38, -19, -7, 57, 13,
   44, -65, -20, 27, 14, -40, 8, -25,
   -17, -35, 24, -30, -8, -25, -14, 30,
   14, 72, 54, 113, 19, -35, -17, -67,
   -3, 75, -24, 10, 41, -8, -55, -51,
   -24, 11, 47, 35, -41, -38, 86, 0,
   32, -80, -1, -6, -15, -16, 18, 44,
   82, 111, -11, -14, 25, 2, -39, 25,
   33, -34, -7, -3, -34, 25, 0, -15,
   -30, -9, -22, 52, 6, -89, 0, -8,
   30, 13, -21, -12, -62, -58, -12, -25,
   -59, 8, 20, -22, -38, -61, -44, -10,
   13, -5, -53, 16, 29, 24, 38, 46,
   -11, 51, 20, -21, 2, 1, 26, 8,
   -7, 31, -52, 37, -19, 4, 15, -61,
   -26, -38, -52, -56, 47, -54, -33, -58,
   14, 1, -40, -22, 51, -52, -23, 45,
   45, 19, 1, -14, 6, 22, -21, 28,
   -35, 8, 59, -33, 75, -11, -4, -65,
   -7, -55, 33, 14, 1, 11, 35, 7,
   57, 24, -23, 15, 73, 33, 17, 10,
   -15, -87, -52, -30, -51, -43, 6, 22,
   34, 26, 92, 30, 16, -5, -37, -2,
   -13, 30, 43, 19, -48, 20, 40, -1,
   -2, -26, 12, -73, -4, 7, -44, -62,
   -20, 8, -1, 15, -11, -71, -16, 31,
   15, -5, -26, -23, 35, 7, -7, -20,
   6, -40, 0, -3, -6, 72, 10, 15,
   13, 14, -30, -10, 27, 22, 16, 3,
   -48, 40, -6, 0, 23, 81, -10, 16,
   56, -37, -7, 0, -11, 8, -11, -41,
   -34, 51, -39, 11, 50, -44, -8, 7,
   -37, 3, -24, -22, 40, -18, 41, -20,
   -21, -110, -6, 40, 57, 29, -13, -4,
   18, -6, 24, 40, -54, -8, -7, -1,
   -26, 29, 23, 93, -47, 51, -22, 3,
   30, 76, 41, -9, 41, 9, -43, -31,
   1, 40, -37, 42, 21, -45, 45, 0,
   -26, -58, -76, -9, -25, 6, 48, 20,
   38, 3, 34, 51, 15, 17, 78, -10,
   -41, 28, 0, -36, -4, -5, 2, -17,
   -28, -16, 82, 30, -30, -23, 42, -20,
   -11, -9, 59, 13, -69, 28, -3, -21,
   15, 2, -26, 15, 40, -22, 5, 43,
   -15, 50, 38, 40, -2, 32, 48, -47,
   -1, -16, 32, 65, -25, 8, -45, 49,
   -29, -4, -18, 48, -31, 29, -39, -2,
   16, -20, -15, -21, -28, 2, 0, 21,
   -33, -43, 27, 26, 7, 56, 13, 10,
   8, -6, -28, 0, -24, 15, 9, 0,
   46, -8, -5, -15, -12, -24, 47, 11,
   1, -4, -79, 18, 16, -50, -22, 20,
   61, 4, 13, 2, -35, -41, 9, -65,
   -19, 17, 11, -12, -2, -40, 7, -29,
   -47, 9, -11, -80, -27, -2, 24, -38,
   -7, 21, -22, 45, 3, 49, 0, -41,
   1, -4, 12, 22, -23, -44, 46, -64,
   11, -69, 10, 10, -4, 5, -5, -26,
   -8, 8, -12, 35, 19, 1, 7, 30,
   -41, 28, 19, 22, -42, -25, 13, -20,
   -35, -31, 7, 43, -24, -26, -54, 18,
   -58, 60, -22, -9, 14, 14, 65, 13,
   -17, -12, 12, 36, 36, -20, 4, 29,
   7, 8, 7, 28, 7, -27, 11, 9,
   -13, 16, -43, 2, -41, -47, -18, -6,
   11, 8, -43, -20, 40, -4, -27, -31,
   -9, -38, -27, -16, -8, 6, -31, 21,
   2, -43, -23, -16, 46, 17, 16, 5,
   36, -32, -28, 47, 21, -60, 23, 15,
   -22, -50, 52, -7, 35, 43, 77, -30,
   -11, -11, -18, -13, -43, 46, -19, 69,
   -65, 7, -39, -56, 45, 3, -65, -11,
   -31, -15, 47, -63, -10, -35, 38, -97,
   32, 10, 1, 19, -16, -90, 19, 17,
   -63, -80, 43, 19, 27, -13, 9, 0,
   15, -13, 62, 48, 53, -1, -87, -57,
   -61, 30, -47, 26, 8, -47, 17, 13,
   1, -80, -27, -31, 106, -51, 38, -46,
   -12, 1, -11, -50, 40, -49, -2, 73,
   55, 55, 15, -2, 56, 40, 70, -59,
   -24, 11, 32, -18, -34, -6, -29, 27,
   -16, 5, -28, 30, 43, -28, 6, -16,
   26, 47, 8, 28, -17, -20, -10, -34,
   -45, -31, -8, 26, 14, 1, 17, 15,
   -11, -1, -39, -10, -8, 65, -23, 21,
   -2, 40, 34, -5, 40, -38, 0, 2,
   -19, 7, -54, -4, 15, 31, -28, -56,
   -25, -8, 51, -3, 22, -7, 17, 0,
   -16, 22, -28, 27, -2, -16, -24, 31,
   -27, 81, 8, -45, -50, 6, 17, -37,
   -1, -47, -38, 12, -6, -12, -34, 29,
   -5, -11, -32, -35, 35, 12, -31, -21,
   7, -22, -6, -23, -15, 53, -44, -57,
   41, -53, -12, 55, -22, -30, -64, -30,
   9, 28, -10, -59, 5, -1, 17, 34,
   -49, 11, 41, -8, 47, -65, 0, -25,
   42, 33, 8, 38, 1, 1, -47, 12,
   33, 3, -33, -52, 89, -63, -39, -13,
   -30, -44, -42, 23, -59, 4, 5, -28,
   -17, -75, 37, 2, 53, 21, 30, -13,
   -7, 49, -19, 63, -8, -10, 11, -10,
   -5, 33, 42, -26, 57, -16, 2, -9,
   -5, -37, -22, -41, 7, 43, 33, -1,
   51, -27, -49, -50, 28, -36, 34, 34,
   29, -4, -13, 22, 3, -28, 57, 23,
   -2, -128, -17, -4, 43, 17, 14, 13,
   -3, -26, 44, 38, 70, -15, -43, -16,
   66, 61, 51, 52, -30, -21, -16, 3,
   49, 53, 29, -7, -5, -6, -48, -48,
   12, -68, -29, -18, 15, -19, -20, 17,
   -64, -72, 23, -41, 30, -38, 67, -61,
   -24, 18, -2, -46, 47, -20, 28, -83,
   -41, -33, -18, -37, -26, 4, -32, -5,
   -16, -22, -4, -11, -22, 35, -63, 33,
   16, 71, 18, 22, -7, 12, -32, -35,
   -60, 65, -37, 30, 4, -36, 24, -27,
   32, 27, 20, -19, -10, -38, 28, -45,
   -20, -65, 30, 19, -5, 13, 17, 9,
   56, 28, -7, -16, -29, 4, 0, 32,
   65, -64, -21, -27, 10, 29, 51, 22,
   21, 48, 33, 45, 4, -31, 30, -34,
   -28, 42, -12, 28, 24, 46, -9, -36,
   -10, 37, -22, -49, 42, 6, -25, 27,
   42, -47, 68, -5, 14, -30, -70, 20,
   -3, -22, 3, -13, 51, 70, 52, 5,
   -19, 48, 19, 22, -67, -21, -5, -55,
   -15, -12, 29, -81, -10, -23, -18, -13,
   -7, -37, 2, -16, 13, -15, 18, -25,
   5, -61, 19, -61, -31, 56, 12, -53,
   -43, 16, 6, 24, -70, -14, 47, 27,
   110, 62, -56, -45, -11, -36, 12, -52,
   12, 112, 40, 28, -11, 29, -3, -31,
   -53, 39, -52, 43, 95, -34, 92, -27,
   -39, 12, 30, 27, -114, -42, -74, 44,
   33, 6, 9, -19, 26, 23, 62, -43,
   21, 51, -30, 38, -12, 52, -22, 15,
   -22, -23, 21, -16, -18, 3, -11, 19,
   -95, 96, -25, -46, -62, -17, -1, -74,
   -12, 48, -51, 66, 51, -32, -59, 35,
   -26, 48, 103, 54, -36, 15, -27, -7,
   -46, -76, -8, -26, -6, 47, -15, 43,
   19, 4, 28, -11, -28, 13, -40, -1,
   -26, -24, 7, 33, -2, 46, -12, 22,
   -18, -16, 6, 5, 1, -16, -52, -16,
   34, -37, 57, -3, -54, -30, -57, -61,
   -46, -30, -14, -71, -39, -91, 19, 22,
   -50, -23, -2, 60, -26, 42, 12, -41,
   -23, -1, 14, 11, -90, -1, 7, 9,
   86, -7, 46, -6, -67, 39, -56, 0,
   -29, -4, 38, -2, -21, -7, -10, -38,
   -32, -59, -39, 56, -34, 11, -11, 4,
   7, 65, 57, 12, -53, -44, -67, 72,
   -10, -2, 35, 10, 14, -6, 23, -26,
   -42, -33, 25, 74, -123, -56, -32, 64,
   -85, 52, 1, 55, -28, 0, -8, 4,
   19, 81, 35, 12, -4, -54, -14, -21,
   -16, -21, -75, 57, -1, 68, -26, 37,
   -14, 17, -29, 10, -26, 15, -51, 3,
   34, -12, 30, 15, 1, -6, 22, 34,
   7, -10, -57, -51, -48, -45, 40, 19,
   -37, 21, 14, -18, -43, -22, 37, -60,
   -4, 15, -52, 65, -31, -20, 7, 76,
   -61, 14, 80, -20, 9, 17, 30, 0,
   -6, -18, 97, 10, -32, -5, -32, -3,
   7, 42, 5, -9, -12, -33, -18, -27,
   48, -8, 5, 96, -59, 81, -103, 11,
   -82, 28, 36, -108, 49, -29, 7, -23,
   -48, 59, 59, 46, 45, -12, 87, 13,
   -21, -22, -11, 82, -128, -21, 53, 17,
   9, 13, -10, -80, -89, -53, 4, -14,
   23, 27, -10, -29, -6, -54, 3, 23,
   -30, 15, -47, 25, -97, 53, 35, -29,
   -44, 1, -78, 57, 41, -84, 70, 26,
   60, 67, 14, 8, 28, -61, -65, 13,
   -9, 52, -25, 28, -63, 86, 23, 20,
   32, 19, -103, -63, -49, -24, 5, -30,
   27, 57, 5, -62, 29, -25, -57, 65,
   -27, 43, -23, -10, -54, -31, 15, 6,
   33, -50, -36, 28, 11, 27, -39, -40,
   44, 77, -25, 26, -5, -40, -14, -6,
   9, -51, 16, -22, -9, -44, 29, 14,
   16, -9, 8, -20, 8, -19, -66, -11,
   41, 20, 17, 0, -4, 1, 47, -39,
   49, -13, 4, 8, 35, 35, -31, 21,
   50, -44, -63, 8, -9, -54, -1, -88,
   -33, -25, -59, -34, 47, -17, 33, -9,
   -29, 14, -43, -42, -57, -21, 30, 37,
   -43, 15, -67, -45, -48, 29, -30, -9,
   -36, -35, -20, -37, -4, 19, 20, -21,
   84, -31, 14, -28, 18, 91, 106, -60,
   -32, -65, 13, 3, 1, -63, 40, 60,
   -28, 5, 17, -25, 27, 8, 34, 25,
   -51, 6, -22, -22, -44, -2, -1, -93,
   51, 75, 36, -25, -20, 4, -44, -68,
   19, 3, 35, -28, -5, 36, 33, -5,
   26, 6, 3, 51, -21, 52, 51, 14,
   -28, -16, -5, -22, 18, 4, 48, 15,
   -21, -13, 32, 66, 5, -63, -47, 33,
   -11, -17, -33, 5, -15, 9, 4, 5,
   48, 35, -13, -7, 26, -26, 14, 3,
   -23, -10, -32, 26, -11, -57, -1, 32,
   9, -30, -27, -9, -66, 34, -65, 14,
   0, -54, -38, 29, -59, 28, -4, -75,
   59, -59, 42, -24, 55, 43, -87, 76,
   1, -35, 46, -7, -86, 35, -14, -56,
   55, -91, 8, -95, -38, -48, 54, 6,
   -7, 51, -3, -20, -21, -43, -45, 17,
   -65, -67, -11, 3, -25, -63, 23, 24,
   45, -29, 11, 15, -61, -44, -31, 41,
   23, -1, 6, -16, 51, 45, 46, -6,
   33, -64, -26, -20, -45, -2, 29, -76,
   36, -43, -14, -34, 5, -19, 29, -39,
   13, 16, -60, 23, -2, -7, -51, -19,
   14, -42, -30, -38, -39, -4, 1, 30,
   58, -1, -39, -9, 6, -20, 13, -25,
   -28, 44, -57, 26, -9, 50, 0, 17,
   47, 18, -12, 22, -96, -3, -45, 47,
   -60, 37, 33, 30, -36, 41, -12, -4,
   45, -8, -43, -17, 1, -20, 36, 9,
   38, -61, -31, -18, 60, 10, -31, -11,
   -30, 0, -68, -36, 84, -90, 28, 22,
   -54, 30, -93, -24, 38, -4, -27, 53,
   -58, 16, 25, 14, 62, 15, -54, 6,
   47, -55, -19, 30, 66, 81, 22, -29,
   -32, -75, -40, -6, -47, -40, 1, 59,
   46, -8, 8, -54, 42, 43, 66, -25,
   47, -43, 48, -8, 83, -104, -5, 38,
   0, 15, -66, -40, 8, -35, 1, 20,
   -17, -16, 16, -39, 9, 12, 27, -54,
   -47, -3, 62, 34, -7, 29, 17, 21,
   -72, -76, -6, 6, 8, 26, 7, -21,
   24, 6, -20, 18, 47, -2, -28, 22,
   -36, 25, 47, 7, 41, -16, -51, 79,
   -33, -9, -58, -28, -53, -7, 6, 16,
   -31, 14, 27, 25, -36, -62, -17, -34,
   -10, -15, -14, -18, 18, -48, -13, 26,
   -14, -11, 8, 8, -7, -47, 1, -44,
   -30, -2, -51, 26, 37, 48, 2, -89,
   47, 58, -25, -25, 17, 27, -4, 33,
   51, 49, -24, -2, -53, 28, 22, 45,
   6, 63, 35, -1, 57, 28, 8, 43,
   -48, 57, 31, 49, -90, -13, 2, 25,
   -12, 17, 11, -4, -23, -24, -29, -6,
   -52, -65, -18, -41, -15, 45, 25, -20,
   -53, 29, 48, -50, -32, 35, 26, -22,
   22, 56, 1, -27, -56, -6, 3, 18,
   9, 26, 21, 49, 38, 19, 49, -15,
   1, 86, 14, 35, -15, 33, 1, 31,
   39, 1, -10, 20, -28, 41, 4, 57,
   -15, 53, -39, -58, -8, 60, -47, -4,
   4, -39, 39, -56, 59, 5, -18, 15,
   -25, 37, -3, 10, 1, 29, -17, -14,
   1, -26, 35, -34, 30, -14, -21, -48,
   4, -28, -28, 30, -28, 8, 9, 1,
   20, -8, -71, -36, -39, 4, -6, -34,
   -23, 17, 5, 20, -60, -6, -14, 0,
   5, -31, 54, 45, -4, 1, -18, 55,
   -17, 100, 36, 6, -24, 6, 24, -9,
   47, 65, 6, -76, 36, -6, -46, 7,
   -49, 38, 22, -7, -48, -43, -71, 45,
   -5, 38, -14, -43, -40, -10, 3, 62,
   16, 37, -31, 26, 6, 54, 5, -63,
   -47, -18, 17, 5, 2, 35, -6, 12,
   38, 35, 2, -8, 10, 19, -43, 32,
   13, -6, 5, -37, 3, 18, 48, 9,
   10, 27, -79, 21, 37, 23, -26, 18,
   -31, -7, -22, 4, -19, 37, 20, 1,
   52, -62, 57, 22, -18, -22, -14, 54,
   96, 24, 12, -8, 0, 15, -39, 26,
   45, 36, -18, 35, 55, 41, -3, -11,
   -33, -7, 4, 81, 28, -12, -4, -5,
   -8, -52, 79, -5, 11, 36, 9, 43,
   -57, -17, 12, -18, 27, -12, 4, -23,
   26, 30, -11, 34, -22, -22, 13, 7,
   -75, 20, -6, -43, 70, 24, 9, 54,
   -56, 35, 7, 39, 6, -67, 30, 62,
   6, 10, 27, -2, -15, -36, -27, 42,
   37, -14, -38, -26, -22, 30, -4, -25,
   12, 26, -59, -9, -1, -65, 41, 37,
   -18, 79, 45, -31, 0, 1, -30, -61,
   -30, 34, -28, 53, -13, 31, 50, 45,
   36, -23, 59, -21, 23, -54, -4, 51,
   24, -6, -16, -49, -61, 55, 43, 3,
   -31, -39, -98, -66, -35, 27, -20, -40,
   2, 4, 45, 4, 23, 32, 44, 31,
   30, -23, 50, -43, 31, -18, 53, 31,
   50, 49, -6, -26, -26, -46, 38, 81,
   20, 9, -87, -19, 14, -34, 8, 27,
   -76, 16, 51, 80, -7, 11, -51, 31,
   41, -69, -22, 34, -39, 24, 8, 30,
   8, 24, 51, 17, -38, -71, -3, 1,
   -32, 81, -10, -1, 7, -8, 76, -2,
   86, 18, -79, -10, 21, 3, -24, -4,
   14, 20, 25, 44, 19, -2, -10, 14,
   -43, -8, -24, -6, 31, 2, -29, 44,
   14, 37, -21, 22, -31, 45, 16, 4,
   -30, -14, -33, 10, -3, 37, 19, -6,
   17, -7, 6, 39, -55, -25, -36, 17,
   -52, 16, 23, 14, 29, -9, 31, -28,
   9, 3, -30, 56, 10, -18, -3, -4,
   12, -4, 5, -28, -20, -3, -59, -37,
   -35, 36, 78, 31, -2, 9, 2, -12,
   22, -36, 43, -1, 20, -22, 11, -6,
   41, -11, -2, 20, 1, 27, 28, -8,
   -8, -26, 30, 38, 1, -8, 16, 24,
   -3, 13, 55, 3, 44, -7, 8, 62,
   -18, -8, 6, 29, 9, 33, -36, 4,
   27, -128, 8, 64, 40, 26, 37, -30,
   16, 1, -4, -8, 47, -38, -27, 2,
   27, -32, 23, -7, -3, -7, 4, 48,
   25, 24, -19, 4, -15, 42, 2, -29,
   57, 4, -20, -8, -19, 28, -4, -54,
   49, -39, 10, -109, 8, -8, 43, 9,
   17, 20, 23, 5, 39, 67, -8, 27,
   10, 27, -28, -26, -47, -57, -18, -60,
   9, 33, 22, 44, 12, 52, -6, -18,
   -54, -47, 58, -54, 26, 50, -6, 24,
   -15, 5, -17, -5, 10, -70, 15, -16,
   2, -4, -48, -45, -8, 5, -21, -93,
   -12, 51, -40, 47, 5, 56, -30, 21,
   18, -10, -22, 35, -19, -6, 10, 27,
   -20, -47, 8, 53, 28, -38, 26, -19,
   18, -7, 0, 33, -51, 21, -4, -31,
   18, 55, 29, 15, -14, 60, -36, 3,
   -13, -18, 29, 1, -16, 71, -25, -25,
   35, -80, 41, 20, 5, -36, 9, 27,
   43, 29, 53, 62, -29, -30, 5, 3,
   -39, 65, 48, 14, 5, -30, 27, -30,
   -12, 3, 62, -43, 32, 29, -23, -40,
   -4, -19, -39, -50, 4, -43, -27, 64,
   48, 18, 5, 31, 24, -11, -39, 41,
   -46, 29, -39, -16, 13, 5, 37, 16,
   -35, 24, -10, 14, 58, -13, 27, -48,
   33, 1, 14, -17, -64, 24, -10, -25,
   -15, 21, -7, 36, -5, 89, -36, 31,
   -8, 20, -24, 12, 45, -85, 33, -39,
   6, 41, 3, 47, 10, -13, 13, -15,
   -46, 70, 7, -28, -42, -4, -38, -32,
   -26, 6, 44, 19, 70, 13, 1, 30,
   9, 28, 59, 16, -43, 26, -57, 13,
   -19, -16, -31, 17, 35, 10, 11, -29,
   13, -67, -26, -90, -59, -13, -28, 31,
   -58, 21, 38, 15, -34, 22, 81, 46,
   12, 36, 44, -14, 27, -65, -9, 14,
   -23, -14, 44, 18, 30, 66, -31, -17,
   -58, -29, -4, -23, 4, 11, -27, -32,
   44, -21, -42, 15, 20, 15, -37, -53,
   54, -10, -25, -19, -19, 25, 55, 0,
   22, -71, 26, -25, 13, -7, 72, 4,
   -2, -62, 3, -22, -14, -21, 1, 12,
   -64, 17, -11, -8, 47, -22, -32, -19,
   16, 7, -13, -16, -21, -51, -1, -39,
   -50, 8, 36, -48, -3, 27, -37, 49,
   5, 72, 38, -24, -4, 0, -27, 28,
   13, -57, -67, 37, 12, 4, -14, -4,
   8, -6, -17, -4, -29, -13, 31, 7,
   7, -17, -55, 3, 16, -18, -13, -31,
   40, 26, -25, -1, 0, 56, -53, 27,
   -24, 22, -66, 2, -12, 56, 29, -47,
   -4, -66, -33, -30, -17, 27, -29, 12,
   -37, -32, 32, 47, -28, 9, 82, 52,
   -20, 8, 8, 35, -25, 2, 49, -15,
   -36, 49, 66, -14, 0, -10, 6, 42,
   1, -36, 8, 24, -29, 9, 30, 29,
   -16, -58, 34, -24, 23, -42, 20, -62,
   36, 46, 35, -6, -12, 8, 38, -18,
   -1, -53, -52, 47, 22, 20, 37, 10,
   -21, -25, -14, -38, 15, 19, -33, 38,
   -71, -20, -4, 26, 26, 46, 9, 0,
   -42, 45, -5, 16, -24, -49, 13, -31,
   -30, 15, 45, 8, 19, -2, -57, 38,
   -40, 73, 41, 36, -47, 2, -38, -15,
   11, -15, -66, -9, 34, -11, -35, -30,
   -43, 3, -38, -24, -24, -6, -38, 12,
   13, -40, -2, 39, 36, -52, 6, 22,
   -22, -12, -5, -20, 14, 57, 27, 25,
   13, -21, 51, 41, -76, 20, 30, -20,
   -52, 43, 3, -9, -7, 20, 28, 1,
   -35, 16, 47, -37, 16, -1, -14, -69,
   -15, 26, -29, -36, -54, 31, -26, 40,
   -33, -14, -6, -5, -21, 3, 28, 17,
   23, 27, -5, -8, -1, -22, -25, 37,
   49, 11, 11, -23, -20, 10, 11, -62,
   45, 39, -4, 25, -33, 28, 12, 40,
   -18, -62, 8, 81, -96, 29, 32, 26,
   -14, 40, 57, -7, -18, -20, -38, 2,
   28, -29, 31, -23, -30, 56, -44, -15,
   -26, -75, -28, 25, -71, 26, -40, 6,
   -17, -6, 3, 4, 7, 36, -13, 9,
   53, -13, 16, -57, -3, 7, 42, -31,
   49, -24, -19, 26, -54, 26, 1, 19,
   23, -29, 36, 1, -43, -18, -47, 26,
   -13, -15, 66, 48, -4, 19, 1, 30,
   11, 1, 5, -8, 35, -9, -2, -27,
   -64, -38, -21, -10, -77, -11, 41, 39,
   -19, 1, 22, 45, 13, -29, 22, -16,
   -33, -15, 1, -35, -62, -15, 26, -4,
   41, 51, -101, 5, -39, -5, -45, -25,
   7, 44, 8, -63, -39, -37, -13, -42,
   30, 55, -28, -9, -45, 4, -118, 45,
   -11, 17, 53, 2, 19, 3, -53, -57,
   38, -19, -8, 12, 76, 57, 5, 18,
   28, 44, 18, 8, -39, 10, 46, -32,
   -38, -2, -24, 9, -62, 6, -46, -39,
   14, -15, -28, 26, 21, -24, -41, -6,
   13, 10, -2, -23, 1, -16, 26, -23,
   -56, -3, -40, -27, 37, 20, 23, 70,
   -8, -19, -39, -47, 19, 42, 27, -37,
   8, 19, -12, -5, 17, -29, -29, -29,
   -27, -16, -17, -41, 7, -1, -5, -14,
   -21, 48, 41, 51, -7, 23, -22, 0,
   -32, -39, 0, -14, -27, -72, 36, -23,
   12, 39, -32, -33, -56, -26, 11, -5,
   20, 83, -20, -1, -40, -23, 24, -1,
   10, 18, -52, -55, -24, 4, 38, 23,
   -2, -30, -31, -18, -7, 18, -39, -29,
   39, -32, 37, 9, 2, -37, 5, -35,
   39, 3, -36, -57, -19, 22, -80, -28,
   0, -20, -1, 25, -3, -38, -31, -8,
   4, -61, 21, 18, 44, 69, -47, 13,
   29, 26, -26, 23, -39, 72, 47, 34,
   -9, -86, -1, 0, 9, 0, -20, 24,
   28, 29, -18, -17, -28, -7, -37, 64,
   -3, 8, -45, -31, -35, -3, -15, -14,
   -6, -38, -30, -17, -15, -42, -13, -16,
   -15, 3, 37, 5, 39, -21, 9, -38,
   20, -9, -1, -41, 11, -44, -21, -13,
   -37, -10, 0, 31, 8, 48, 32, 47,
   11, -16, -3, 10, 20, 36, -13, -5,
   25, 16, -55, 14, 46, -48, -25, 37,
   42, -55, -60, 12, -7, -61, -51, -54,
   -62, 84, -5, 37, -10, 28, -33, -34,
   -51, -26, -15, -21, 36, -36, 0, 3,
   3, 14, 19, -22, -20, 67, -48, -63,
   53, -38, 18, -5, 5, -46, 1, 21,
   19, -24, 29, 4, -27, 10, -85, -71,
   -30, -49, -38, -54, -21, 9, -4, -2,
   25, -16, -26, 17, -7, -26, -14, -36,
   24, 8, -5, -20, -30, 63, 40, -25,
   19, -127, 7, 49, 56, -62, -15, 66,
   48, 39, 37, 32, 9, -37, -13, 52,
   -44, 29, 6, -46, 62, -40, 49, 44,
   -11, -38, 19, 35, -9, 10, -18, -43,
   -22, -41, -4, 9, 49, -19, 26, 15,
   9, 21, 24, 11, -1, 45, 9, 49,
   51, -47, -1, 37, -23, 23, 23, 39,
   19, 5, 38, 39, -51, 62, -16, -22,
   7, -4, -31, 32, 44, -63, -28, -27,
   15, 5, 22, 25, -48, -52, 7, -30,
   -16, 38, 25, 16, 7, 51, 54, -70,
   33, -1, -18, -45, 57, -14, -60, -28,
   -8, 16, 23, -8, 26, -4, -34, 33,
   31, -8, -50, -19, -7, -12, -25, 0,
   24, 17, 17, 5, 5, 55, -44, -36,
   4, 16, -33, -34, -23, 1, 28, 5,
   -53, 34, -37, -5, 23, -4, -8, -1,
   -19, 26, -28, -18, 18, -19, -28, 33,
   -32, 16, -32, -11, -16, -15, -18, 5,
   13, -17, 17, -23, -32, 6, 36, -29,
   3, 20, -44, -20, -11, 3, 34, -25,
   8, 0, 41, 31, -13, -3, 37, 5,
   34, -26, 2, -4, 14, -17, 27, -3,
   3, 31, -17, -8, -31, 41, -4, -26,
   6, 1, 23, -43, 19, -28, 12, 4,
   35, -33, 18, 14, -8, 23, 31, 8,
   7, -47, -83, -15, 28, 19, 5, -36,
   87, -8, -51, 7, -14, 36, 21, -28,
   24, 41, -56, 18, -4, 24, -30, 21,
   -85, -33, -93, 21, -27, -7, -28, -28,
   -36, -70, 31, 12, -4, -16, 6, 6,
   16, 58, -52, 19, -20, -51, 9, 17,
   12, -44, -49, 76, -43, 9, -17, 40,
   42, -20, -1, -19, -12, 15, -8, -39,
   -1, 24, -27, 3, 30, 37, 40, -20,
   14, -43, 31, -59, 9, 1, -15, 40,
   -28, 57, 34, 26, -10, 35, -42, 24,
   5, -43, -7, 21, -17, -42, -29, -28,
   5, 9, -13, 47, -14, 48, -11, -10,
   -34, -34, 25, -48, -13, -8, -9, -19,
   -39, 41, -25, -9, -12, 20, -4, 29,
   -40, 1, -49, 18, 18, 18, -59, -46,
   -30, 15, 19, 48, 28, 8, 17, 17,
   -37, -1, -36, 25, 19, -4, -21, 48
};

static const rnn_weight noise_gru_recurrent_weights[6912] = {
   -6, 8, 43, -31, 35, -5, 27, -35,
   -5, 11, -13, -22, -68, 19, 35, -8,
   -33, -23, -17, 19, -39, 12, -2, -9,
   4, -26, 29, -15, 22, 2, 1, 10,
   -7, 10, -21, -38, -40, 6, 23, 11,
   53, 71, -25, 10, 30, 20, 16, 37,
   15, 28, 11, 22, 62, -12, 9, -26,
   6, -10, 28, -14, 4, 31, -33, 22,
   25, -9, -33, -15, -38, 27, -2, 27,
   -28, 7, 1, -12, 32, -12, -31, 13,
   21, 2, 25, -7, -26, 4, 21, -9,
   41, -20, 15, -22, -21, -39, 7, 26,
   14, -30, 16, 42, -7, 17, -19, -25,
   6, 19, -42, 11, 17, -2, 39, 25,
   27, 4, 16, 33, 17, -11, 28, 24,
   -12, 1, -18, -9, 21, 3, 19, 9,
   -3, -6, 0, 52, 10, 10, -32, 19,
   28, 4, -14, 21, -4, -29, 43, -36,
   17, 2, 3, 30, -15, 0, 24, -18,
   75, 50, -19, -7, 44, -13, -6, 12,
   8, 15, -3, 8, -14, 48, -9, 2,
   -9, 21, 33, 3, -37, 42, -27, -27,
   6, 42, 42, -23, -27, 64, -22, 9,
   37, -16, -8, -14, -9, -41, 8, -8,
   6, -22, -20, 8, 7, 12, 28, 22,
   -5, -2, -17, -51, -18, 8, -54, -40,
   11, 34, -30, 19, 13, -1, -1, 7,
   45, -21, -31, -3, -1, 22, 10, 6,
   33, 11, -2, 60, -49, -2, -14, 60,
   -40, -6, 28, -16, -27, -35, 30, -25,
   -3, -19, 42, -37, -1, 29, -93, -10,
   -18, -35, 74, 18, 6, -3, -6, -17,
   -18, -11, 1, -32, -26, 19, 9, -22,
   29, 26, 9, 9, 33, -77, -75, 22,
   15, 66, -27, 69, -7, 8, 29, -14,
   -30, -20, -3, 40, -15, 10, 11, -21,
   -35, 16, -12, -29, -63, 3, -2, -26,
   -13, 29, -31, 14, 5, 8, 17, -24,
   -3, 13, -3, -23, 15, 33, 15, -28,
   -48, 29, 17, -28, -31, 13, 15, 26,
   -16, -51, -4, 0, 15, 35, 25, -10,
   18, 15, 21, -18, 9, -1, 54, 43,
   -8, 21, -36, -19, 21, 12, 46, -12,
   -1, 41, 15, 4, -27, 12, -12, 15,
   -15, 4, -21, -2, 6, -30, 30, -2,
   25, -10, 11, -8, -37, -22, 10, 30,
   -7, 10, 30, -19, -29, -9, 19, -19,
   12, 3, -45, -20, 12, -48, 23, 10,
   -25, 31, 21, 47, -11, 52, 28, -36,
   19, 2, 10, 16, 14, 11, 2, 16,
   6, 19, -29, -24, 34, -5, -81, 22,
   53, 40, 31, -34, 5, 11, -15, 7,
   20, 24, -23, 37, -5, -21, 25, -14,
   -18, -8, 30, -15, 10, 22, 8, 12,
   -37, 1, -22, 53, 44, -24, 24, -3,
   -54, -11, -27, -1, -29, 16, 32, -27,
   -44, -43, -1, 45, -22, -6, 9, -31,
   25, 3, -31, -42, -46, -6, -2, -1,
   -1, 12, -37, 27, -4, -38, -8, 19,
   -37, -38, 3, 19, 35, 46, 13, -5,
   -16, -11, 14, 36, -24, 0, -10, 23,
   33, 52, -22, 46, 55, -43, 4, 5,
   7, -52, 3, -15, -50, -9, -41, 32,
   29, -57, 26, 56, -2, 16, 38, -20,
   -8, 10, 26, -3, -2, -20, 46, -9,
   -5, 1, 41, 43, 19, 26, 62, -23,
   -29, 45, 11, 20, 13, -12, 22, 17,
   -32, 4, 10, -14, -18, -41, -45, -7,
   -26, 51, 4, 7, 43, -5, -2, 14,
   25, -67, -16, -12, -4, -43, -32, 0,
   14, -27, 3, 62, -23, 0, 25, 20,
   15, 6, -31, 12, 28, -11, -16, -35,
   5, 61, 26, 7, -15, -45, 32, -9,
   -3, -27, 0, -13, 29, -17, 36, 20,
   -12, -44, -13, 5, 23, 46, 30, 3,
   27, 16, 40, -25, -38, 20, 21, -7,
   -27, 25, -14, -58, 14, 16, -5, 9,
   15, 22, 35, 0, 32, 44, -32, -31,
   20, 75, 11, 19, -5, 5, -6, -35,
   -20, 5, 8, 4, -15, -37, 18, 13,
   7, -21, -50, 5, 49, 12, -12, -26,
   -26, 0, -37, -10, -7, 78, 13, -24,
   -6, 3, -2, 40, 10, -15, -5, 5,
   18, 21, -29, -21, 19, -11, 17, 4,
   -27, -40, 5, 11, 64, 13, 20, -41,
   3, 22, -23, 21, -14, -4, 7, -1,
   -34, 65, -12, -17, 11, -4, 9, 9,
   -17, 15, -10, 29, -32, -10, 49, -20,
   36, -47, 40, 19, 39, 25, 41, -11,
   10, 5, 12, -2, -9, 24, 5, -25,
   4, 26, -25, -9, -12, 32, -30, -31,
   65, 19, -21, 50, -17, 0, 22, 27,
   -46, 23, 1, 54, 28, 16, -23, -19,
   4, 15, -89, -25, -42, 34, -18, -15,
   34, 36, 34, -1, 10, 15, 10, 0,
   25, 17, 14, -18, -18, 58, 18, 33,
   37, 13, 47, 26, -2, -29, -9, -10,
   3, -26, 39, 12, -14, 37, 0, -7,
   22, 16, -24, -14, 12, -14, -25, -10,
   37, -32, -22, -10, -12, -28, 33, -14,
   -1, 15, 27, 18, 40, -4, 8, 35,
   20, -5, -12, 19, 42, -21, 21, 32,
   9, -19, -9, 11, -5, 16, -11, -7,
   -10, -23, -18, -29, 31, -29, 10, 14,
   -8, 62, -27, -88, 23, 60, 13, -7,
   44, -9, 19, 8, -20, -38, -39, -23,
   11, -14, 19, -13, 13, 12, 3, -16,
   -15, -15, 38, -50, 6, -1, 17, 1,
   18, 25, -19, -28, 5, 13, -7, -17,
   19, 57, -22, 1, -1, -19, -9, 28,
   20, 19, 56, 62, 27, -12, 50, -5,
   17, -21, 10, 34, 20, 21, -20, 17,
   6, -24, 41, 7, -5, -33, -3, 2,
   22, -17, -20, -35, -39, -11, 15, -14,
   -20, -8, -13, -31, 16, 6, -11, -13,
   49, 16, -6, 8, -18, -34, 11, 9,
   -8, 34, 8, 16, -18, 52, -25, 13,
   -67, 15, -19, -7, 15, 18, 15, -99,
   25, 7, -8, 81, -23, 48, -18, 3,
   -18, -22, 14, -21, 9, 9, 28, -10,
   -6, 11, -2, -48, 44, 17, -3, -44,
   -9, 19, 21, -14, 36, 4, -31, -36,
   -6, 40, -27, 35, 48, 18, -14, 6,
   -30, -2, 6, -9, -33, 12, -39, -21,
   21, 114, 4, 28, 48, 28, -19, -25,
   -6, -20, -7, -26, 3, -18, 34, -19,
   14, 11, 7, 44, -24, 31, 38, -1,
   42, 19, 9, 12, 20, 9, -42, -49,
   58, -20, 103, -31, -66, -43, -27, -12,
   0, -42, 17, -1, 0, -27, -8, 5,
   -11, 13, -77, 14, -54, -3, -37, 42,
   27, 23, 38, 24, -13, -7, -18, 17,
   0, 3, 11, -1, 27, 2, -20, 18,
   -11, 20, 6, -29, -40, 26, -39, -10,
   11, -23, 1, -27, -4, -48, -9, 3,
   -74, -26, 22, -47, 23, -26, -20, -32,
   -4, -19, -11, 11, 16, 40, 6, -31,
   33, 4, 13, 19, 19, -13, 43, -4,
   26, 24, 3, -11, 0, 25, -31, -4,
   -5, 40, -15, 16, -1, 71, -31, -34,
   46, -5, -26, -27, 26, 13, 29, -6,
   -17, -4, -2, -17, 28, -5, -20, -33,
   29, -27, 3, 12, 12, 8, 7, -15,
   26, 29, 14, -34, -10, 42, -31, 4,
   57, 3, 23, -23, -12, -32, 17, 12,
   -27, -18, -32, 11, -24, -22, 24, -45,
   84, -9, -9, -11, -33, 12, -43, -30,
   -21, 24, -1, -54, -6, -39, -33, -59,
   -3, -23, -49, -32, -56, -31, 11, 41,
   14, 31, 0, -11, 13, 55, -25, 12,
   22, 8, 32, -44, 0, 18, 14, 4,
   24, -43, 22, 19, 9, -24, -19, -29,
   -45, -24, -5, -16, -6, -11, 7, 23,
   15, 20, -49, 24, 31, 15, -4, -12,
   -16, -1, -42, -29, 2, 21, -3, -4,
   26, -29, -19, -30, 44, 5, -17, 29,
   1, -8, -67, 35, 22, -4, -35, -19,
   5, 36, -14, -7, 10, 0, -29, -25,
   -2, -5, 26, -13, 21, -4, -70, 7,
   -11, 23, -15, 13, -16, 18, -8, -10,
   6, 32, -17, -2, 57, 19, -18, 45,
   -6, -20, 17, -4, -11, -2, 15, -44,
   30, 19, 25, -9, -69, -2, 32, -21,
   -38, 16, -24, -63, -104, 31, 22, 23,
   -1, -36, -9, -4, -36, 40, -22, 21,
   36, 5, 54, 55, 33, 18, 16, 39,
   -22, 6, -3, -18, -24, 29, -14, -5,
   8, 29, 5, 48, 17, -6, -13, 0,
   -2, -29, 3, -3, -9, 27, -22, -12,
   -17, 19, 23, 29, -42, 15, -2, -18,
   -27, 36, 6, 17, -5, 4, 44, 19,
   -7, -41, -28, 23, 49, 15, 32, -32,
   0, 10, -13, -33, 18, 21, -6, -25,
   15, 28, -23, 12, 20, 9, 21, 0,
   -2, -23, -9, 11, -15, -39, 37, -7,
   -43, -9, 28, -43, 31, 31, -6, 14,
   20, 42, 30, 20, 20, -32, 9, 0,
   -20, 39, 5, 13, 19, -17, -14, 28,
   1, -15, 11, 41, 13, 0, -5, 41,
   16, -36, -16, -28, 10, -35, -33, 45,
   -11, 37, 24, -17, -14, 12, 5, -61,
   -39, 52, 21, 7, 12, -7, -7, -5,
   -10, 69, -26, 4, -16, 11, -15, -8,
   -25, -48, 26, 45, -21, 9, -9, 0,
   -5, -21, 6, -65, 23, 11, -20, 12,
   17, 37, 13, 16, 15, -37, -19, 16,
   -15, 22, 5, -23, -30, 6, -19, 26,
   -12, 16, -15, -4, 27, 3, -1, 8,
   24, 24, -6, 49, -16, -24, 57, 35,
   17, -12, -8, 7, 8, 44, 7, 11,
   21, 9, -35, -39, -20, -10, 11, 6,
   -6, -12, 2, -19, 8, 11, 10, 1,
   28, 25, 9, -15, -7, 10, 6, -16,
   17, 12, 14, 28, -36, 30, 26, 22,
   -15, 21, -11, -13, 28, 33, -16, -45,
   -30, -9, 42, 4, -36, -27, -19, 11,
   -58, -13, -7, 5, -30, -18, -5, -3,
   0, -10, 19, 51, 21, -7, -19, 48,
   35, 52, 18, -46, -42, -12, 3, -16,
   4, 29, 24, -34, 7, -10, -13, 12,
   7, -30, 51, -56, -7, -38, 15, 8,
   -25, 39, 15, 8, -19, -24, -4, 17,
   -17, 4, -14, -2, -30, 3, -3, 14,
   -2, -50, 6, -12, -12, 12, 31, -5,
   5, 38, 8, -6, 11, 16, -13, 41,
   -7, -15, -21, -35, 1, -55, -32, 3,
   -9, -5, 9, 69, -10, 22, 26, 12,
   -47, -27, -5, -1, -18, -62, 13, -2,
   15, -4, -1, -2, -15, -8, -24, -17,
   40, -51, 3, 9, -17, 21, 18, -33,
   -8, 0, 12, 27, 10, 15, -26, 4,
   -17, 10, -27, -9, 26, -21, 0, -16,
   3, 38, 13, -36, -22, -27, -8, -2,
   -4, 16, -11, 29, -6, -16, 5, 50,
   -13, -5, 1, 3, 40, -47, 1, 22,
   -23, -24, -35, 18, 26, 7, 28, -36,
   24, 65, 45, -17, -20, -19, 15, -13,
   -35, -14, -21, 11, -4, 19, 47, 36,
   29, -30, -39, 0, 46, 2, 41, 14,
   -23, 12, -4, 51, -22, -5, -11, 42,
   -13, -62, -20, -26, -41, 48, -29, 14,
   15, -7, -4, -28, -3, 29, 10, 8,
   22, 36, 24, -28, 24, -14, -62, 26,
   17, -40, -22, 14, 28, 35, -18, -6,
   -6, -4, -37, 13, 2, 25, -31, 11,
   -30, -21, -17, -15, 31, -15, 6, -24,
   21, -29, -17, -2, -13, -8, 4, 20,
   5, -4, 20, -23, -5, -12, -21, 17,
   4, 6, -33, 32, 34, 27, -11, -34,
   -68, -9, -11, -28, -44, -14, -22, 25,
   -3, 66, 39, -16, 52, 24, -35, -38,
   -41, 57, 30, -8, 56, 40, -7, -26,
   12, 0, 24, 12, -6, 24, -14, -7,
   11, 21, 19, -33, 10, 16, -10, 10,
   22, 27, 50, -36, -70, -19, 1, 0,
   0, 17, -15, -14, 12, -19, 40, 2,
   48, 36, 36, 7, 9, 8, 25, -4,
   2, -12, 32, 34, 0, 35, 16, 26,
   -3, -5, -40, -24, -3, 19, 1, 52,
   -7, 51, 58, 1, 14, 10, 14, 27,
   48, 1, 5, -31, -58, -11, -77, -11,
   -29, -9, -13, -4, 1, 18, -15, 10,
   28, -32, -23, -38, -51, 31, -25, -7,
   0, 32, 40, -5, -13, 24, 17, 12,
   -17, 25, 5, -25, -31, 7, -42, -10,
   -23, -20, -23, -15, 3, -24, -12, -14,
   15, 5, -10, 20, 25, -12, 10, 4,
   -1, -45, 9, 1, 9, 9, 6, -33,
   -6, -1, 35, -31, 14, 12, 36, 13,
   15, -4, 31, 55, -16, -24, -27, 10,
   23, -36, 25, 15, -40, -35, -17, 5,
   20, 50, 13, -31, 1, -15, 14, 33,
   -9, -4, 14, -58, 3, -29, 24, 24,
   -27, 16, -9, 14, -16, -74, 1, 34,
   -7, 34, -30, -15, -15, 7, 22, 58,
   -30, 11, 6, -24, -30, 12, 16, -21,
   -5, -5, -34, -43, 16, 50, 21, 11,
   -5, -15, 4, 13, 25, 0, 10, -44,
   9, 23, -30, 5, 53, 19, -32, -22,
   -28, -1, -1, -13, 5, -18, 16, 2,
   23, -41, -5, 15, 6, -16, 35, -19,
   -17, -2, -41, 24, 5, 1, -30, -17,
   -18, 33, 14, -27, 0, 19, -10, -11,
   64, 45, 4, -7, -32, 3, 23, -1,
   50, -15, -29, 20, -12, 11, -15, -2,
   -12, 0, 5, 5, 54, 2, -20, 7,
   23, 33, 11, 6, -11, 56, -22, 23,
   17, 1, 48, -22, -2, 21, -3, -7,
   17, 14, -39, -25, 8, 23, 5, 19,
   50, 31, 15, -8, -11, -50, 29, -2,
   45, 31, -4, -18, -56, -14, 29, 15,
   -11, -12, -31, -27, 51, 1, -25, 38,
   -26, -39, -20, -17, 27, 53, 0, -37,
   1, -26, -6, 2, -59, -6, 44, 32,
   -19, 45, 1, -82, -7, -13, -20, 57,
   26, -15, -40, -8, 24, -23, 28, -6,
   29, 10, 29, -5, 41, 20, -40, 15,
   42, -6, 7, 22, -28, -19, 0, 41,
   -4, -24, 2, -14, 13, -25, 8, -32,
   5, -8, -8, -31, 9, 9, -2, 8,
   2, 33, -13, 16, 5, 19, 28, -24,
   -30, 0, -11, -25, -16, 20, 1, -20,
   18, -38, -17, 19, 1, 56, -3, -16,
   -4, 10, -34, -18, -2, 11, -9, 18,
   2, 0, -23, -10, 5, -33, -41, 7,
   -9, -1, -39, 1, 26, -44, -58, -1,
   -3, -11, -9, -10, -8, 4, -35, -24,
   21, -11, -41, -9, 36, 10, 10, -15,
   25, -41, 27, -35, 35, -20, 37, 12,
   -5, -14, 8, 11, -4, 37, -6, 22,
   -1, 59, 16, -26, -2, -27, -20, -5,
   48, -37, 41, 16, 6, 1, -32, -7,
   -21, -24, -18, -56, -33, -8, -47, 18,
   14, -67, 13, 5, -31, 51, 20, -20,
   18, 22, -13, 13, 17, 16, 13, 20,
   -12, 24, 32, 51, -44, -25, 9, 40,
   24, -20, 21, -37, 17, 25, 24, 6,
   -8, 3, 14, -28, 28, -80, 32, -8,
   -6, 17, -13, -11, -19, -12, 6, 21,
   14, -15, -22, -44, 6, -24, -1, -23,
   0, 22, -2, 25, -3, -32, -17, -11,
   14, 8, 6, 14, 7, -27, 0, -3,
   9, 27, -8, 22, -23, -16, -7, -13,
   9, 58, 36, 13, -10, -1, 45, 29,
   30, 6, -23, 3, 0, -7, 2, -27,
   3, -3, -17, 19, -9, -19, -19, 19,
   61, 74, 23, -8, -21, 5, -2, -33,
   -34, 16, -1, -47, 38, 34, 63, 40,
   0, 4, -31, 12, -11, -24, -3, 2,
   -40, -30, -3, 20, -6, -14, -25, 53,
   4, 39, 20, -15, -7, -4, -13, 11,
   -32, 56, -2, -28, -11, 54, 9, -20,
   -17, 4, 6, -47, 8, -1, -1, 31,
   -2, -64, 17, 13, -53, -16, 21, -38,
   17, -17, -35, -13, -22, 3, -8, 5,
   6, -7, 8, -16, -17, 20, 30, -12,
   63, -3, 13, -34, -15, -10, -38, 27,
   -39, -23, -21, 42, -11, 3, 29, -1,
   -9, 58, -37, 50, -14, 15, -11, -20,
   -45, 3, -20, 11, 27, 1, -2, 3,
   6, -23, 0, 25, -49, -18, -14, 0,
   -45, 26, -28, -29, 31, -50, -31, -14,
   -47, 2, 34, 40, -13, -18, 12, 11,
   -21, -23, 12, 0, -21, -1, -6, 0,
   35, 62, -5, -10, -18, -59, -2, -28,
   10, 37, -8, -27, 11, 0, 20, -31,
   -16, 30, 5, -29, -34, 13, -14, 22,
   3, 11, 28, 56, 26, -22, -22, 34,
   -53, 16, -6, -8, -50, 23, 26, 52,
   -6, 10, 10, 23, 8, -10, 29, 19,
   45, 12, 11, -13, 7, 42, -14, -14,
   -2, -17, 27, 11, 1, 9, -25, 12,
   11, 22, -3, 7, 10, -17, 62, -39,
   35, 29, -4, 19, -18, -9, 0, -2,
   41, 28, -55, -49, -16, -25, -6, 5,
   -42, 50, 8, 2, -12, -34, 50, 31,
   -8, -9, -2, 4, 1, 16, -6, -32,
   -13, 24, -13, 24, -17, -22, -15, 25,
   16, 8, 25, 6, 18, 64, -85, 28,
   0, 20, -10, 35, -29, 15, -7, -21,
   -17, -14, 3, -8, 38, 35, -21, 13,
   35, 7, -12, -33, 31, -11, 7, -12,
   -23, 3, -21, -12, -30, -23, -19, -15,
   -54, 52, -12, 19, 0, 3, 7, -21,
   19, 5, -17, 0, -65, 25, -18, -20,
   -13, 18, 17, -39, -20, 6, -11, 26,
   -68, -9, -9, 5, 6, -40, -16, 48,
   -50, -1, -25, 26, 1, -5, -9, -17,
   1, 50, -7, 4, -35, -31, -31, -2,
   -3, 3, -31, -54, -3, 20, 54, 3,
   -41, 0, 21, -37, -15, -1, -13, 20,
   -19, 34, -18, 22, -39, -22, 5, -7,
   16, 5, 11, 7, 10, -2, -27, -69,
   4, 14, -54, -48, -4, -18, 46, -4,
   -6, -2, -11, -11, 25, 11, 24, 33,
   -15, 23, -19, -20, 7, 18, 8, 24,
   12, 1, 14, -17, -19, 52, 18, -30,
   -3, 44, 12, 33, -1, 26, 44, 42,
   -24, 27, -44, -8, -4, 5, 1, 24,
   9, -18, -1, -15, 8, -9, -13, 3,
   44, 32, -10, -17, -23, 13, -9, -48,
   -28, -37, 13, -33, -7, 8, -16, 28,
   56, -42, -11, -28, -35, -15, -8, 16,
   40, 16, 3, 0, -22, 10, -1, -22,
   -2, -10, -8, 0, -21, -23, -49, -21,
   -24, 16, 22, 11, -26, -37, -7, -2,
   -30, 15, 2, 32, 1, 32, -21, 9,
   2, 8, 11, 3, -23, -2, -14, -34,
   23, -22, 26, -22, 0, -20, -36, -20,
   3, 17, -11, -4, 17, -18, -20, -27,
   -24, 46, -30, 51, 27, 9, 30, -2,
   -15, -33, 6, -46, 37, 18, 6, 19,
   12, 14, -15, 59, 14, 16, 37, -72,
   -30, 5, 28, -7, 1, -25, -9, 23,
   10, -7, 26, -29, 12, -1, -36, 13,
   22, -7, -29, 15, -20, 9, -3, -12,
   21, 22, 8, -11, 45, 4, -1, 32,
   8, 0, 12, 31, -11, -17, 40, -12,
   34, 41, -57, -74, -16, 37, 2, 15,
   -3, 52, 2, -11, 51, 46, 40, 45,
   -8, -5, 11, 32, 58, -79, 23, -15,
   15, 15, 4, -48, -3, -1, -8, 62,
   -3, -8, -89, -46, 40, 69, 20, 27,
   43, 18, 26, 24, 4, 84, -3, 23,
   6, 51, 9, -23, 28, -8, 14, -31,
   35, 13, 7, -25, -9, 30, -15, -26,
   -18, -1, -19, 15, 21, 34, 25, -9,
   3, 30, 6, -10, 28, -58, 6, -41,
   42, 21, -9, -15, -18, -16, -37, -26,
   1, 5, -8, -12, -17, 15, -27, -14,
   16, 34, 5, 19, 0, 5, -36, 24,
   -30, -23, -16, -3, 14, 32, -57, 45,
   -11, 10, 25, -6, -45, 16, 6, -3,
   23, 39, -41, 42, 6, -3, 40, -27,
   -3, -3, -7, 42, -17, -16, -26, 0,
   7, 32, 14, 6, 17, -7, 6, 13,
   20, -14, -61, 31, 1, 25, -33, 1,
   12, 8, -35, -27, 5, 9, 5, 30,
   -4, 1, 25, -1, 68, 25, -31, 17,
   5, -25, 22, 5, -15, -4, -47, -14,
   18, -64, -1, -1, -5, 27, -23, -4,
   -26, 39, 17, 23, -6, 18, -25, 12,
   36, 11, -8, -17, 12, 3, -5, -7,
   40, 33, -71, -19, -46, 55, 39, -10,
   32, 16, 34, -15, -32, -29, -18, -17,
   39, -9, -27, 30, 4, -9, -1, -37,
   11, -27, 6, -4, 3, 3, -12, -14,
   -1, 10, 28, -17, 15, 15, 3, 9,
   55, -18, -10, -1, 36, 9, 1, -24,
   21, 29, 19, -10, 1, 24, 9, 5,
   -25, 34, 21, -5, 5, -49, -7, 30,
   49, 5, 11, 28, 35, -13, -5, -21,
   7, -8, 53, 7, 30, 23, 27, -18,
   14, -28, -21, 1, 33, -30, -18, -46,
   14, 51, 25, -34, -12, -3, 6, 35,
   62, -13, 0, -22, -18, -10, 23, -18,
   -7, 37, 36, 51, 21, 6, -21, -12,
   -16, 7, 21, 49, -12, -10, -9, -3,
   31, -7, 66, 20, -2, 5, -9, -3,
   18, -29, 4, -36, -4, 4, 13, 51,
   -13, -2, 33, 58, 47, -4, 4, 5,
   -34, 5, 3, -24, -64, 25, 13, -15,
   -9, 5, 19, 13, -10, -49, -9, -10,
   29, -8, -4, 4, 28, 19, 20, -23,
   -11, 9, 41, 25, -28, 21, 20, -9,
   45, 28, -24, -33, -30, -16, 1, -7,
   -20, 11, 4, 46, 24, -8, 18, 0,
   17, -1, -20, 1, -18, -13, -18, -7,
   -33, -13, -12, 3, -15, -17, -9, 5,
   -19, -2, 6, 21, 6, 36, -13, 32,
   -9, -4, -2, -2, -11, 49, 9, 18,
   17, 43, 25, 17, 47, 2, -28, -17,
   -18, 20, 11, -32, -57, -9, 5, 6,
   -24, 43, -32, 8, 18, 11, 1, 6,
   24, 84, -7, -4, 9, 21, -33, -18,
   -36, -5, 38, -14, 49, 44, -4, 26,
   -73, -26, 21, -2, 4, 9, -22, 17,
   11, -15, 21, 10, -18, 24, 27, 56,
   -3, 13, -12, 0, -37, 66, -39, 3,
   -8, 15, -34, -12, 18, 24, 1, -20,
   33, 2, -26, -18, 33, 22, -1, 15,
   29, 9, -3, 25, 38, 13, 41, -6,
   31, 11, 23, 6, 16, -8, 4, 9,
   -4, -4, 29, 5, 10, -12, -29, -22,
   -6, 1, -30, 11, -9, -22, 13, -16,
   -20, -20, -44, 40, 47, 19, 6, 16,
   46, 14, 7, -3, 33, 21, -5, 57,
   29, 12, -1, -10, 16, 14, 22, -26,
   -5, -14, -40, -18, 12, 2, 14, 17,
   21, -12, -7, 27, 17, 24, 16, -43,
   -16, -5, 16, 7, -8, -43, -62, 32,
   -5, 2, -25, 4, 47, 32, 58, 36,
   -31, 2, 56, -3, 2, 11, -22, -11,
   26, -13, 0, -21, -14, 2, 40, -3,
   -20, 1, -4, -6, -35, 49, 28, 1,
   7, 2, 12, 17, -13, 44, 18, -18,
   9, 33, 42, -14, -37, 21, 12, 38,
   7, -40, -37, -13, 33, -34, -25, 16,
   -6, 16, 23, -13, -15, 8, 20, -4,
   26, 11, 4, -7, 26, -19, -1, -56,
   -17, -23, -24, 8, 12, 5, -8, 0,
   -1, -34, -10, -16, 6, -14, -10, 18,
   56, 9, -7, 46, 29, 4, -35, -7,
   19, 13, 19, -28, -1, -6, 0, 0,
   -6, -8, -23, -11, -10, 19, 31, -35,
   0, 34, 23, -5, 18, -2, 16, 4,
